1026 128
1025 -0.136072 -0.037662 0.108094 -0.081037 0.105145 -0.145340 0.100894 -0.070418 0.048771 0.052984 -0.053435 0.012964 0.099203 -0.057438 0.239360 -0.113818 0.135750 -0.196391 -0.029457 -0.064519 0.070851 0.085039 0.041302 -0.111537 -0.039627 -0.092229 -0.004102 -0.197017 -0.023900 -0.095563 -0.054656 -0.048493 -0.129152 0.035471 -0.043388 -0.053654 0.059018 -0.019958 -0.133084 0.147926 0.107872 0.111866 0.177109 -0.052370 0.039554 0.086207 -0.031038 0.021597 -0.240441 -0.156230 -0.185493 0.017056 0.249474 0.149236 0.047698 -0.052920 0.034270 0.102907 -0.143623 0.048418 0.195756 -0.027351 0.039427 0.022587 -0.034209 0.186642 0.040520 -0.099352 -0.216536 -0.063346 0.240739 0.067353 0.090267 -0.103897 0.241297 0.152343 0.187481 0.055547 -0.005227 -0.109975 0.091871 -0.013278 -0.052710 0.045480 -0.065060 0.026568 0.022203 0.041533 0.244232 0.082903 0.124800 -0.070195 -0.001011 0.034930 0.151850 0.057997 -0.018862 -0.270342 0.079674 -0.121692 -0.045784 -0.058204 0.041973 0.063717 0.022859 -0.047987 0.168734 -0.190163 0.047958 0.122997 0.213479 -0.081840 -0.038123 -0.066184 -0.010752 0.158997 -0.073105 0.066867 0.100195 -0.192842 0.276228 0.043354 0.183093 0.124083 0.062636 -0.052851 0.065179 -0.030593
511 -0.214415 0.053984 0.059953 -0.258912 0.371474 -0.347342 0.111364 -0.273758 0.005440 0.266004 -0.405211 0.094260 0.449842 0.046599 0.446027 -0.179891 0.573646 -0.119150 -0.241869 -0.122564 -0.059127 0.280067 0.002767 -0.127761 -0.059708 -0.050263 -0.224496 -0.441891 0.135312 -0.473943 0.021314 0.195995 0.027079 0.045008 -0.191446 0.256937 0.213624 -0.174655 -0.211634 0.036563 0.366401 0.064440 0.015728 0.126320 0.319166 0.149582 0.029559 0.014030 -0.122895 0.018026 -0.355515 0.105581 0.058724 0.123245 0.097780 -0.269803 0.067382 -0.015610 -0.026117 0.316809 -0.091609 -0.232315 0.021004 -0.313087 0.105321 0.364613 -0.164790 -0.007637 -0.037779 -0.375923 0.232195 0.051566 -0.106215 0.040302 0.115800 0.286916 0.248358 0.191649 -0.171479 0.069505 -0.137880 0.282471 0.081750 -0.191931 -0.096686 0.021272 0.022390 0.250825 0.207994 -0.194644 0.256744 -0.269326 0.195451 0.039063 -0.035418 0.177215 -0.414543 -0.322686 0.150226 -0.199371 -0.342294 -0.241144 0.192813 -0.172375 -0.133295 0.079492 -0.033433 -0.237605 0.121985 0.119588 0.274478 -0.060666 0.066361 -0.169407 -0.068196 0.221380 0.038933 -0.008185 0.236217 -0.245209 0.221529 -0.061320 0.042536 -0.071671 -0.058716 -0.080585 0.228044 -0.233795
1009 -0.101894 -0.151374 -0.034624 0.046148 0.023470 -0.187573 0.225164 -0.478752 -0.031371 0.148280 0.030874 0.115798 0.214578 0.155013 0.026775 -0.247139 0.087073 -0.166551 -0.216196 0.091122 -0.200897 0.226141 0.168436 0.013547 0.004300 -0.194787 -0.079463 -0.395135 0.145695 0.205470 -0.182737 0.010109 0.211956 0.030064 -0.232376 0.076629 -0.140296 0.083362 -0.073711 0.187037 0.108593 0.076664 0.219799 -0.292279 0.086726 0.056577 0.039595 -0.254045 -0.230563 -0.352111 -0.401385 -0.000719 0.072317 0.195998 0.263454 -0.267742 0.128165 0.276471 -0.231743 0.242102 -0.216007 0.017415 -0.050593 0.046092 -0.034851 0.131867 -0.084572 0.363996 0.054175 0.005874 0.216947 0.263959 -0.247775 -0.117827 0.095618 0.327765 -0.143123 -0.293235 -0.118907 -0.137705 -0.038898 -0.032917 0.187237 -0.115431 -0.282189 0.017787 0.078098 0.131382 0.003529 0.255583 0.198172 -0.012805 0.193824 -0.050071 0.118323 0.005103 -0.232219 -0.361096 0.121738 -0.076011 0.020822 0.025895 0.216982 -0.065228 -0.361845 0.104209 0.095807 -0.214749 -0.009031 0.348841 0.510435 -0.145646 -0.050160 0.019147 0.232410 0.088129 0.018355 -0.129541 0.234204 -0.230643 0.202551 0.174101 0.016657 0.047832 0.220936 0.106565 0.100393 -0.039321
2 0.053596 -0.125285 0.339919 0.182699 -0.369575 -0.152832 0.100333 0.082771 0.102352 0.173753 -0.040911 -0.025491 0.337163 -0.128235 -0.043571 -0.163900 0.101998 -0.343486 -0.101790 0.054810 -0.101287 0.441326 0.136765 -0.050587 -0.004315 0.026875 0.053698 -0.309735 -0.096306 0.019290 -0.062248 -0.067165 -0.100464 0.248153 -0.052034 0.201061 0.071507 -0.152306 -0.310395 0.124509 0.096823 0.474442 0.174609 -0.133901 -0.131712 0.151740 -0.390834 -0.343819 -0.286846 -0.493523 -0.250525 0.060571 0.250843 0.069730 -0.323418 -0.027351 -0.026142 0.306095 -0.280385 0.003612 -0.033656 -0.161382 0.178634 0.144358 0.136574 0.213652 -0.011178 0.089714 -0.404941 -0.260144 0.341368 -0.136589 0.073555 0.235120 0.463856 0.032259 0.290261 0.239219 0.064995 -0.190699 0.188207 -0.184090 -0.468685 -0.042387 0.085444 0.217082 0.314211 0.017309 0.384431 0.040548 0.557615 0.103332 -0.056305 -0.188635 0.161795 0.349480 -0.196235 -0.257752 -0.000238 0.156376 -0.080938 -0.367296 0.256637 -0.085992 0.125294 -0.407206 0.067996 -0.101466 -0.068754 0.304169 0.190154 -0.002217 0.120651 -0.317213 -0.316170 0.158921 0.041734 0.006901 -0.057502 -0.143249 0.044539 -0.026954 0.331494 -0.203213 0.011982 -0.044255 0.174350 0.163162
701 -0.420729 0.032282 0.228090 0.321527 0.075262 -0.142328 0.053883 -0.282050 0.288117 0.140344 0.152210 -0.161808 0.204304 -0.181532 0.246081 -0.276888 0.037092 -0.200369 0.240390 0.205218 0.005679 -0.242832 0.146664 -0.170856 0.029906 -0.151161 0.058098 -0.189205 0.055403 -0.281917 -0.028345 -0.263693 -0.111544 0.010353 -0.046172 -0.237968 -0.003553 -0.474783 -0.178160 0.315600 0.029278 -0.071971 0.374252 -0.018483 0.072072 0.411294 -0.304616 -0.067683 -0.375215 -0.077901 -0.366757 -0.102375 0.352085 0.081761 0.061489 -0.100974 -0.267975 0.164882 -0.347670 0.072883 0.263241 -0.151585 0.002310 0.171953 0.085765 0.327341 -0.216058 0.051113 -0.456625 -0.331099 0.083198 -0.184477 0.342731 0.077624 0.037254 0.441547 0.269317 0.268554 -0.020736 0.081675 0.171533 0.363614 -0.006441 0.084619 -0.191268 -0.174792 -0.054587 0.022721 0.156817 0.345728 0.162050 -0.155965 0.049969 0.227415 0.489912 -0.138720 -0.166124 -0.482386 -0.319217 -0.271616 0.214354 0.112046 0.029255 0.261500 -0.022433 -0.086317 0.052549 -0.202206 0.098401 -0.055559 0.503244 0.345060 -0.002803 -0.026556 0.009955 0.205144 -0.329310 0.087211 0.435145 -0.085064 0.305272 -0.463064 0.106358 0.256321 -0.018367 -0.012403 0.026791 -0.189428
547 0.068041 0.111464 0.213594 0.210004 -0.248336 -0.050781 0.368106 -0.095686 -0.071229 0.312449 0.153541 0.049271 0.342201 0.005484 -0.090883 -0.066260 0.261623 -0.334327 0.102062 0.069488 0.027188 0.444159 -0.091297 0.048905 -0.009549 0.021578 0.066303 -0.272052 -0.176454 0.136275 0.063144 0.095172 -0.061875 0.268378 -0.113913 0.044375 -0.074750 -0.114479 -0.243306 0.054265 0.273794 0.408144 0.073815 -0.262597 -0.118669 0.287246 -0.214818 -0.260948 -0.244636 -0.353286 -0.475999 0.056171 0.261472 0.048640 -0.272990 -0.218009 0.080904 0.316912 -0.330253 -0.046772 -0.169217 -0.021543 0.233784 0.246106 0.251775 0.245522 -0.010074 0.169598 -0.336399 -0.044877 0.438469 0.015083 0.120850 0.148562 0.367980 0.050376 0.298877 0.139372 -0.135203 -0.086402 0.221673 -0.371495 -0.305447 -0.093554 -0.078510 0.146149 0.336896 -0.081611 0.499805 0.260628 0.590170 0.219699 -0.093920 -0.010004 0.249855 0.044833 -0.142410 -0.083442 0.128768 0.160694 0.007767 -0.303376 0.361491 -0.083633 0.039612 -0.368208 0.022446 -0.107228 -0.004948 0.394395 0.304674 -0.184896 0.015475 -0.277996 -0.201290 0.098539 0.129070 0.006685 -0.178090 -0.389314 0.395858 -0.131763 0.324858 0.057623 0.105939 -0.008261 0.040598 -0.033308
410 0.002734 -0.118004 0.342298 0.231086 -0.354239 -0.200287 0.048657 0.045932 0.103425 0.191814 -0.008184 -0.021929 0.308316 -0.136122 0.053974 -0.195127 0.149135 -0.333772 -0.084512 0.074929 -0.074119 0.472860 0.099246 -0.024375 0.022851 0.033084 0.093555 -0.351524 -0.148052 -0.023597 -0.050783 -0.007229 -0.131780 0.270510 -0.100053 0.147560 0.030706 -0.179444 -0.304464 0.098611 0.115102 0.400819 0.137742 -0.109986 -0.155168 0.208267 -0.408639 -0.340013 -0.245548 -0.441598 -0.272394 0.099959 0.278874 0.022338 -0.290992 0.027976 0.005792 0.291501 -0.230795 -0.071925 -0.086264 -0.168819 0.215785 0.191872 0.198542 0.147012 -0.015181 0.082392 -0.308408 -0.264780 0.321845 -0.143977 0.073829 0.253947 0.466350 -0.057261 0.285820 0.293791 0.067279 -0.132358 0.230185 -0.149783 -0.470135 -0.110039 0.067335 0.196434 0.314600 0.027768 0.367598 0.071682 0.576692 0.083130 -0.107440 -0.138971 0.197053 0.358686 -0.186651 -0.276441 0.036599 0.125413 -0.122496 -0.390311 0.241929 -0.009502 0.141630 -0.457354 -0.003751 -0.127249 -0.043747 0.335562 0.245561 0.044764 0.079455 -0.317187 -0.313199 0.180809 0.096438 -0.022725 -0.095000 -0.207654 0.094774 -0.044486 0.348977 -0.181683 -0.013390 -0.063644 0.123818 0.160935
579 -0.048715 0.007821 0.097732 -0.182385 0.119228 -0.128027 -0.059769 -0.197439 -0.039485 0.225394 -0.278671 0.058759 0.228622 0.051861 0.297142 -0.185444 0.238826 -0.294984 0.021634 -0.074149 -0.032477 0.235011 -0.010182 -0.141957 -0.060046 -0.002400 -0.089310 -0.438597 0.054552 -0.209422 -0.135279 -0.137454 -0.019510 0.014653 -0.103316 0.013123 0.202179 0.031703 0.031696 0.099115 0.207002 0.245278 0.099025 0.184344 0.224290 0.046174 -0.048444 -0.062080 -0.176571 -0.103124 -0.223481 0.065121 -0.002177 0.127179 0.035805 -0.136824 0.054872 0.211526 0.118437 0.368686 0.202712 -0.107751 0.037169 -0.195438 -0.167229 0.251494 0.019446 -0.103797 -0.093275 -0.087889 0.308209 -0.154707 -0.095117 -0.197756 0.127907 0.296187 0.255765 0.200059 -0.144627 -0.225448 0.036877 0.119944 0.050675 -0.048704 -0.030650 0.005251 -0.022966 0.002621 0.063869 0.113157 0.149879 -0.164612 0.146952 0.058365 -0.006557 0.051627 0.044745 -0.063207 0.258239 0.065467 -0.055904 -0.079817 0.079955 -0.052546 -0.111311 0.094667 0.032142 -0.215601 -0.071478 -0.040932 0.019725 -0.258428 -0.132177 -0.152338 0.000565 0.149993 -0.139178 0.029228 0.070658 -0.085475 0.375492 0.203873 0.135013 -0.166457 -0.079288 0.012301 -0.024920 -0.027835
115 0.044605 -0.162848 0.318034 -0.105906 0.001620 -0.219645 0.216172 -0.648774 0.104725 0.269503 -0.295021 -0.145652 0.066907 0.060248 0.090048 -0.192442 0.070213 -0.196541 0.126966 0.108229 -0.005811 0.189353 0.041222 -0.245671 0.257757 -0.039541 -0.060665 -0.466547 0.236566 0.046985 -0.195553 -0.001222 -0.012168 0.175444 -0.043148 0.066082 -0.060570 0.027907 -0.194227 0.203804 0.100516 0.094443 0.062033 0.064092 0.107545 0.121666 -0.205483 -0.124045 -0.290419 -0.022655 -0.391964 -0.068059 -0.161071 0.255505 0.249293 -0.335638 -0.093426 0.152572 -0.298299 0.351046 0.046414 -0.087341 0.189397 -0.123377 -0.036779 0.084472 -0.147215 0.014729 -0.162736 0.052406 0.158349 -0.101674 -0.008224 -0.036155 0.049416 0.597344 0.062818 -0.145307 -0.171724 -0.022699 -0.036908 0.270771 0.208749 0.204719 -0.177804 -0.192314 0.157654 0.124874 -0.068297 0.167170 -0.050062 -0.149791 0.229066 -0.043852 0.288903 0.187944 -0.116261 0.152039 0.038095 -0.037153 0.088885 -0.020837 0.181083 -0.118790 -0.185780 0.213896 0.093563 -0.209404 -0.076043 -0.120756 0.176532 -0.170719 -0.007453 0.027452 -0.047634 0.264582 -0.037955 -0.048488 0.105111 0.131883 0.168916 0.020483 -0.101935 0.128791 0.000392 -0.056142 -0.109699 -0.028535
1008 -0.131597 -0.152092 0.276066 -0.414080 -0.027351 -0.100255 -0.024313 0.065935 0.061068 0.043158 -0.000547 -0.015848 0.299237 -0.143341 0.060579 0.250285 0.066209 -0.384456 -0.198192 0.004497 -0.092314 0.235356 0.331454 -0.269382 0.191994 0.043379 0.137374 -0.296490 0.205323 0.194022 -0.237375 -0.171204 -0.142765 0.526733 -0.093758 0.016671 0.182102 0.070691 -0.423209 0.152266 -0.098155 0.126664 0.039324 0.087171 -0.061828 0.012857 -0.155418 0.312646 -0.205806 -0.429978 0.124000 0.109173 0.195020 0.201255 0.215705 0.026100 -0.257667 0.095786 -0.218110 0.011556 0.070321 -0.104475 -0.160028 -0.021698 0.084357 0.213506 0.208152 -0.046868 -0.793480 0.050858 0.556517 0.074755 0.346830 0.277635 0.262503 0.273156 0.395916 -0.028906 -0.313523 -0.493237 0.190746 0.177184 -0.205074 0.105037 0.101392 0.078360 0.135447 0.306343 0.244454 0.111469 0.205328 -0.085495 -0.048315 0.039696 0.310688 -0.345186 -0.340545 0.247929 0.227297 0.034378 0.079727 0.072260 0.073369 -0.029274 -0.144277 0.062729 0.229311 0.104558 -0.049543 0.238703 0.111569 -0.207706 -0.127239 -0.248041 -0.130325 0.291523 -0.433857 -0.009303 0.042164 -0.109688 0.346129 0.206765 0.392962 -0.004636 0.094234 -0.070631 0.097990 0.104450
97 -0.183790 0.076691 0.106608 -0.265660 0.469541 -0.314334 -0.005993 -0.243103 0.092055 0.217860 -0.402206 0.125373 0.421058 0.087968 0.459276 -0.179506 0.563354 -0.121265 -0.241031 -0.157963 -0.078090 0.272947 0.016309 -0.113511 -0.050817 -0.124017 -0.251804 -0.493381 0.054783 -0.514426 0.053665 0.244680 -0.039820 -0.017849 -0.180102 0.292256 0.298218 -0.157537 -0.266822 -0.027186 0.341402 0.097997 -0.003926 0.178204 0.377141 0.119486 0.027528 0.002947 -0.160264 0.017031 -0.388189 0.200332 0.095079 0.194635 0.105181 -0.162228 0.072947 -0.041818 0.011493 0.305874 -0.018548 -0.238255 -0.027493 -0.387108 0.082337 0.388126 -0.199154 -0.006718 0.018326 -0.432992 0.251972 0.122674 -0.223820 -0.075900 0.192511 0.197495 0.208305 0.194213 -0.080584 0.034638 -0.129150 0.300574 0.097283 -0.215419 -0.067788 0.009572 0.026000 0.274134 0.137063 -0.268789 0.191083 -0.321638 0.191349 0.003649 -0.060146 0.365491 -0.329480 -0.454187 0.150893 -0.285733 -0.480105 -0.287151 0.154813 -0.185544 -0.040982 0.133044 0.002880 -0.291949 0.065184 0.123496 0.231588 -0.064006 0.068670 -0.144801 -0.010281 0.264195 0.095879 0.000402 0.311208 -0.213314 0.230901 -0.005471 0.083265 -0.146905 -0.084295 -0.081070 0.231009 -0.169565
216 0.109312 0.039962 0.110936 0.159499 -0.107383 -0.096790 0.414184 -0.210717 -0.194254 0.255061 0.086718 0.044063 0.298164 0.069069 -0.063423 -0.122813 0.227086 -0.151264 0.069785 0.051122 0.096416 0.447682 -0.043734 0.115988 0.006837 -0.117915 -0.051151 -0.292968 -0.211662 0.265176 0.172694 0.175580 -0.044133 0.205867 -0.146049 0.124756 -0.194720 -0.113156 -0.236951 0.050565 0.300751 0.289930 0.056883 -0.414648 0.072046 0.179308 -0.114076 -0.268300 -0.229621 -0.314487 -0.617471 -0.034490 0.234268 0.110012 -0.107649 -0.335738 0.148813 0.263394 -0.312257 -0.029801 -0.204274 -0.021145 0.142692 0.282290 0.203693 0.169459 -0.020362 0.240777 -0.139510 0.123135 0.272283 0.282910 0.091055 -0.000570 0.375192 0.080991 0.142841 0.008050 -0.100850 -0.006247 0.145249 -0.313277 -0.064214 -0.137777 -0.182088 0.133549 0.282602 -0.028061 0.402497 0.251342 0.429518 0.236177 -0.074262 -0.053432 0.218884 0.066050 -0.099490 -0.140934 0.116449 0.024699 0.000036 -0.235778 0.414754 -0.132101 -0.135044 -0.256987 0.066897 -0.204344 0.017927 0.552550 0.347244 -0.213332 -0.056987 -0.154687 0.003797 0.021702 0.235737 -0.134089 -0.203033 -0.485674 0.327335 -0.063039 0.200409 0.148509 0.129597 0.084867 0.087099 0.008940
887 -0.262638 0.111401 0.229161 0.231215 -0.097325 -0.273291 0.219545 -0.551750 0.089678 0.130012 0.189084 -0.231828 0.094891 -0.012320 0.197409 -0.276062 0.125376 -0.074903 0.277823 0.133766 0.046805 -0.125789 -0.031972 -0.176921 0.154060 -0.260016 0.044528 -0.351728 -0.148739 0.004374 0.039580 0.155032 -0.138850 0.086110 -0.345403 -0.257666 -0.284054 -0.203927 -0.104813 -0.021021 0.148976 -0.262741 0.239442 0.013866 -0.099773 0.431277 -0.313714 -0.155296 -0.306118 0.061558 -0.501286 -0.165139 0.096371 0.127481 0.030328 -0.200634 0.003173 0.311507 -0.454040 0.068512 -0.010422 0.002416 0.285287 0.271484 0.137742 0.083631 -0.196098 0.130813 -0.058463 -0.235567 0.085401 -0.074537 0.186432 0.129078 0.200861 0.401298 0.065652 0.116760 -0.049510 0.195238 0.197558 0.191746 0.070450 0.018526 -0.241790 -0.191600 0.189536 0.064021 0.261341 0.382410 0.131037 -0.111074 0.131659 0.195783 0.451315 0.171572 -0.149476 -0.429079 -0.186761 -0.246950 0.093714 -0.136605 0.152388 0.131578 -0.081782 -0.128915 0.098484 -0.057880 0.041931 0.060436 0.598191 0.211733 -0.071443 0.003475 -0.167310 0.343480 0.093934 -0.201013 0.131814 -0.289505 0.416821 -0.444211 0.150948 0.477064 0.078705 0.145931 0.030286 -0.034477
91 -0.437346 0.083185 0.152437 0.266999 0.052353 -0.098411 0.038583 -0.348705 0.236803 0.196663 0.086976 -0.185207 0.391499 -0.106403 0.182964 -0.131591 0.192607 -0.148602 0.216391 0.179153 0.085760 -0.183455 0.050015 -0.106952 -0.039579 -0.081627 0.013779 -0.272270 0.003301 -0.292012 -0.005248 -0.238464 -0.048485 0.029129 -0.144513 -0.102108 0.002014 -0.409774 -0.118262 0.239869 0.130117 0.017564 0.275384 0.055087 -0.028633 0.417299 -0.265800 -0.113094 -0.289594 -0.037040 -0.394108 -0.086074 0.287387 0.001275 0.010593 -0.200203 -0.255543 0.259273 -0.344809 0.132590 0.259578 -0.144746 0.148001 0.141755 0.120107 0.293164 -0.164115 0.117811 -0.398760 -0.416036 0.071633 -0.271768 0.353118 0.134308 0.066832 0.525369 0.219799 0.332975 -0.075739 0.137659 0.133046 0.269880 0.022330 0.043737 -0.270390 -0.188487 -0.063248 0.098527 0.297150 0.276578 0.224908 -0.144260 0.063882 0.188774 0.449260 -0.109510 -0.285433 -0.478060 -0.244363 -0.208782 0.137800 0.077125 0.084172 0.097297 -0.052705 -0.040884 0.049977 -0.157943 0.206248 -0.082280 0.453582 0.331110 0.064517 -0.108391 -0.020043 0.259836 -0.322657 -0.029173 0.402914 -0.148637 0.247704 -0.464183 0.130361 0.217474 0.057990 0.086809 0.106394 -0.226973
396 -0.054692 0.114237 0.096777 -0.189489 0.283189 0.096562 -0.390842 0.218054 0.170467 0.204738 -0.166912 0.164640 -0.000347 0.133912 0.656060 -0.189109 0.238139 -0.591400 0.309900 -0.258772 -0.064846 -0.025160 -0.149693 0.095231 -0.081503 -0.103068 0.127953 -0.254686 0.030299 -0.521101 0.101936 -0.153602 -0.259126 -0.254516 -0.029032 -0.300618 0.443488 -0.013663 -0.113055 -0.190894 0.205471 0.330039 0.164234 0.342808 0.194909 0.350096 -0.271149 0.065543 -0.564639 -0.072995 -0.420932 0.045632 0.218018 0.021515 -0.098351 0.083366 0.056117 0.369112 -0.127937 0.260138 0.312386 0.058084 0.027982 -0.023399 -0.379594 0.388088 -0.070503 -0.090009 -0.287121 -0.494903 0.261081 -0.010402 -0.139936 -0.366026 0.148894 0.174316 0.209514 0.382374 -0.204359 -0.358154 0.142077 0.091593 -0.310532 0.208587 0.091207 0.102073 0.078106 -0.039469 0.219886 0.273417 0.151100 -0.548843 0.066574 0.341889 -0.269138 0.040574 0.175870 -0.543537 0.345247 0.048801 -0.198047 0.065918 -0.111684 0.163582 0.075297 -0.101931 0.088903 -0.343532 -0.013297 -0.210938 0.067995 -0.079837 -0.073772 -0.234413 -0.067151 0.010215 -0.299814 0.332837 0.039278 -0.036421 0.502222 0.103981 0.396458 0.062271 -0.195484 0.049441 -0.208738 -0.185935
1022 0.208460 -0.244092 0.296220 -0.033342 -0.099463 -0.285584 0.298774 -0.709867 0.222363 0.445510 -0.321112 -0.008396 0.020762 0.234131 0.098798 -0.161811 -0.052852 -0.286083 -0.066315 0.228251 -0.084108 0.129442 0.109948 -0.195862 0.251117 -0.064547 -0.054265 -0.403390 0.500944 0.216766 -0.354777 -0.084182 -0.076329 0.102912 0.203509 -0.094122 -0.025543 0.077316 -0.290629 0.309044 0.177270 0.028808 0.003573 -0.285717 -0.089594 0.032340 -0.227567 -0.221526 -0.384265 -0.342126 -0.457298 -0.002872 -0.220482 0.176163 0.255726 -0.491287 -0.037600 0.226721 -0.614277 0.388350 -0.084817 0.064276 0.181777 -0.073360 -0.137556 0.060852 -0.176002 0.047664 -0.220541 0.208612 0.174635 0.149060 -0.319430 0.032705 0.042396 0.432057 -0.054281 -0.432270 -0.159263 0.025566 0.005390 0.064438 0.050961 0.295715 -0.076270 -0.316699 0.255296 -0.111804 -0.014625 0.393180 -0.032243 0.011033 0.247787 -0.098049 0.298752 0.306656 -0.069733 0.218045 0.117704 -0.015326 0.183996 0.120733 0.270672 -0.054084 -0.212614 0.280766 0.155713 -0.226956 0.022856 0.102789 0.272979 -0.128459 0.094907 0.182255 -0.005571 0.184801 0.026299 0.098372 0.217382 0.164685 0.134411 0.273630 0.000217 0.118064 0.170887 -0.092184 -0.219993 -0.158002
817 -0.223075 -0.036908 -0.236615 -0.113287 0.138360 -0.542086 0.145649 -0.278758 -0.284806 0.171253 -0.344425 0.294173 0.327991 -0.013886 0.228740 -0.421631 0.254293 -0.146545 -0.372597 -0.103408 -0.131595 0.186347 0.050567 -0.053087 -0.133512 -0.139804 -0.076266 -0.195165 0.260024 -0.029577 -0.179522 -0.292439 0.250035 0.064763 -0.077655 0.032796 0.010229 -0.203876 -0.125755 0.174941 0.288301 0.075240 0.015749 -0.251653 0.275857 -0.022061 0.022445 -0.231523 -0.098738 -0.414898 -0.384432 -0.027410 0.361678 0.106612 0.197236 -0.280864 0.129985 0.353061 -0.067334 0.199054 -0.120052 -0.163680 -0.131276 -0.154910 -0.149615 0.292834 0.001318 0.356423 0.095342 0.064695 0.132585 0.231504 -0.164840 -0.250580 0.101803 0.094785 0.015793 -0.095257 -0.061090 -0.129221 -0.161647 0.114525 0.074325 -0.150236 -0.279087 -0.054374 -0.302677 0.297469 0.133598 0.116586 0.004031 -0.121005 0.049999 -0.060117 0.088250 -0.074802 -0.411896 -0.570890 0.302246 -0.270795 -0.188188 -0.143045 0.210031 0.122321 -0.389808 0.066310 0.241521 -0.282662 0.213896 0.386093 0.329102 -0.194526 -0.092659 -0.067234 0.222786 0.039342 -0.103529 -0.244167 0.150969 -0.482172 0.190041 0.308267 0.015286 -0.105974 0.089555 -0.033283 0.326592 -0.362463
22 0.025524 -0.105885 0.103895 0.085632 -0.214425 -0.356678 0.109703 -0.516915 0.131260 0.101314 -0.156772 -0.147295 0.051166 0.024915 0.228257 -0.219633 -0.040709 -0.168982 0.254297 0.250048 0.043154 -0.097399 0.163312 -0.081657 0.096239 -0.203356 0.083135 -0.459891 0.013965 0.158477 -0.023697 -0.111697 -0.206176 0.269633 -0.126017 -0.209479 -0.269306 -0.031716 -0.116193 0.060626 0.242149 -0.001533 0.203927 -0.106296 -0.119491 0.230101 -0.303827 -0.220880 -0.297673 -0.087441 -0.401268 -0.029071 -0.137885 0.094841 0.044875 -0.339998 0.075174 0.512115 -0.249443 0.106259 0.027336 0.079937 0.384719 0.278386 0.066413 -0.037409 -0.230436 0.053799 -0.093677 0.169465 -0.058580 0.049171 -0.026070 -0.054678 0.094241 0.275920 0.037790 0.019830 -0.060745 -0.049741 0.249416 0.008819 0.054817 0.132663 -0.209801 -0.157570 0.419061 -0.118735 0.159823 0.287568 0.140857 -0.043455 0.088257 -0.060013 0.351327 0.349204 -0.009636 -0.112926 0.038904 -0.138935 0.266279 -0.193387 0.141245 0.075641 -0.212025 -0.092555 0.111200 -0.047292 -0.056510 0.096109 0.434359 -0.042017 0.000964 -0.001307 -0.186814 0.144206 -0.008503 -0.091254 -0.062276 -0.041834 0.189048 0.030961 0.221902 0.372036 0.157004 0.073551 -0.100829 0.237404
186 -0.241798 0.036658 0.209203 0.323997 -0.226266 -0.294626 0.205025 -0.439242 0.055097 0.096750 0.311183 -0.277925 0.115097 -0.033740 0.166906 -0.199504 0.077041 -0.157345 0.273383 0.152452 0.096572 -0.143885 0.032732 -0.135623 0.077527 -0.297096 0.099254 -0.338641 -0.189506 0.057414 0.056811 0.070683 -0.228266 0.133358 -0.355562 -0.180623 -0.279319 -0.099276 -0.024049 0.019129 0.112331 -0.195671 0.256287 -0.078845 -0.184024 0.429672 -0.282937 -0.185702 -0.287472 -0.060161 -0.410941 -0.149182 0.201880 0.186422 -0.008155 -0.198252 0.041059 0.368180 -0.358046 -0.048181 0.076081 0.010208 0.303599 0.313577 0.274437 0.113598 -0.102945 0.102553 -0.084625 -0.195899 0.067488 0.000892 0.211861 0.165386 0.274841 0.322638 0.085962 0.129892 -0.019312 0.109242 0.318471 0.015000 0.032276 0.004071 -0.272364 -0.067397 0.296859 -0.013272 0.317156 0.374795 0.231550 0.006524 0.074561 0.127108 0.439725 0.173578 -0.132941 -0.434546 -0.160964 -0.233808 0.119359 -0.180339 0.156589 0.233011 -0.073396 -0.210951 0.140763 0.036611 0.066734 0.174733 0.657587 0.177855 -0.000942 -0.030329 -0.198014 0.356277 0.059945 -0.163382 0.136794 -0.277785 0.399108 -0.386622 0.281153 0.538686 0.142370 0.179222 0.077921 0.056381
390 0.051922 -0.144769 0.176211 0.129173 -0.001158 0.064737 0.087744 -0.344490 0.183570 0.262488 -0.151258 0.037203 0.385188 0.122278 0.009317 0.158699 0.229247 -0.104778 0.019841 0.062717 0.128030 0.170977 -0.133375 -0.113063 -0.072017 0.013214 -0.149913 -0.302855 0.037952 0.163212 -0.288569 -0.273337 0.099553 -0.103741 0.202051 0.097547 -0.013295 -0.073328 -0.120558 0.331969 0.272645 0.229893 0.147575 -0.089113 -0.064444 -0.059421 0.050428 -0.286519 -0.295657 -0.268985 -0.352454 -0.088078 0.126539 0.177523 0.082025 -0.392258 0.012173 0.121092 -0.374390 0.336948 0.441041 -0.060729 0.245481 0.164906 -0.167978 0.132722 0.205863 0.029935 -0.301106 0.057972 0.251913 -0.066189 0.179380 -0.077888 0.364183 0.561288 0.036504 -0.078011 0.018566 -0.006108 0.111340 -0.189261 0.098224 0.025165 -0.288205 -0.236985 -0.018137 -0.084354 0.403810 0.297928 0.023649 0.227509 0.118992 -0.130776 0.226098 0.182357 -0.079202 -0.294399 0.209916 0.054212 0.074394 0.114330 0.293750 -0.128994 -0.137778 0.213335 0.038748 -0.366395 0.211608 0.098452 0.091279 0.040760 0.094038 -0.056195 0.282511 0.186988 -0.095328 -0.145194 0.208287 -0.222223 0.209346 0.110549 0.113006 -0.144515 0.271564 0.050221 0.169149 -0.197518
717 -0.031441 -0.033480 0.268907 -0.020660 0.084189 -0.133601 0.159546 -0.516207 0.063694 0.228095 -0.204208 -0.065670 0.142156 0.045291 0.228953 -0.246855 0.204747 -0.079138 0.105596 -0.016379 -0.018298 0.174734 -0.086279 -0.184218 0.117230 -0.000599 -0.089632 -0.432762 0.095974 -0.125909 -0.048575 0.036744 -0.003263 0.052704 -0.136279 0.035087 -0.013030 -0.017902 -0.144719 0.152198 0.136084 0.060809 0.047627 0.136191 0.147281 0.182767 -0.089004 -0.121936 -0.269810 -0.029226 -0.319292 -0.011747 -0.015733 0.229950 0.252944 -0.306973 0.015691 0.075468 -0.209551 0.289894 0.105658 -0.058011 0.080035 -0.089706 -0.001997 0.194025 -0.174524 0.008576 -0.038854 -0.037440 0.224184 -0.127014 -0.024045 -0.046366 0.093183 0.412831 0.088032 -0.119232 -0.093410 0.017456 -0.032853 0.214103 0.120480 0.080937 -0.096196 -0.179352 0.062863 0.025344 -0.026588 0.238595 0.004424 -0.123938 0.278879 0.102365 0.200287 0.087966 -0.012969 -0.061821 0.010452 -0.042181 0.039152 -0.041809 0.194285 -0.074093 -0.061185 0.173117 0.012494 -0.320586 0.039780 -0.088506 0.207913 -0.135143 0.023529 0.102306 0.008968 0.260426 -0.035830 0.010716 0.109340 -0.037784 0.344888 -0.136556 -0.107166 0.042415 0.058575 -0.064425 -0.051489 -0.086861
947 -0.332698 0.049986 0.270615 0.388033 -0.037717 -0.172055 0.089416 -0.269130 0.303459 0.194494 0.126031 -0.162943 0.165038 -0.122014 0.285989 -0.364004 0.009332 -0.162445 0.280023 0.179002 0.004583 -0.143834 0.098577 -0.099917 0.008136 -0.146804 0.079311 -0.219128 -0.021694 -0.239227 0.012480 -0.256091 -0.176384 -0.006737 -0.011263 -0.208061 -0.059094 -0.440716 -0.177674 0.246811 0.075211 0.031595 0.341305 -0.079349 0.004288 0.429143 -0.368579 -0.260112 -0.374896 -0.170973 -0.387246 -0.037214 0.303577 0.025116 -0.024623 -0.108795 -0.222387 0.230605 -0.413567 0.016384 0.242714 -0.094357 0.114851 0.239735 0.045982 0.236046 -0.236518 0.064085 -0.358740 -0.305055 0.064428 -0.210156 0.221887 0.094287 0.151187 0.405352 0.270954 0.287338 0.014490 0.161225 0.175705 0.212888 -0.139164 0.127655 -0.130989 -0.160546 0.025626 -0.134697 0.203452 0.378844 0.247105 -0.071758 0.066946 0.232339 0.427572 0.059832 -0.086605 -0.427981 -0.356229 -0.197737 0.163185 0.028192 0.079617 0.195679 0.062849 -0.226967 -0.003448 -0.222744 0.114220 -0.061593 0.438605 0.388209 0.092950 -0.016735 -0.048380 0.164686 -0.198244 0.068285 0.313789 -0.019467 0.256144 -0.471063 0.073259 0.211621 0.013492 -0.041914 0.002367 -0.099645
619 -0.162968 -0.250888 0.334307 -0.444441 0.020194 -0.082353 -0.061268 0.020155 0.097966 0.074589 -0.054820 -0.010766 0.302389 -0.165304 0.091889 0.353433 0.146093 -0.311050 -0.215536 -0.037487 -0.121288 0.253663 0.299585 -0.302763 0.245874 0.122083 0.093897 -0.301814 0.229598 0.129282 -0.221323 -0.069924 -0.183449 0.500096 0.025395 0.128900 0.182191 -0.004378 -0.495347 0.198347 -0.093263 0.209249 0.017461 0.089198 -0.070714 -0.081872 -0.099221 0.280107 -0.254271 -0.418944 0.052209 0.051272 0.251043 0.208479 0.232933 -0.011612 -0.259268 -0.047687 -0.297583 0.007780 0.047558 -0.082202 -0.166711 -0.100140 0.126184 0.241660 0.164182 -0.020531 -0.789372 -0.025356 0.550245 0.012113 0.303365 0.326632 0.307108 0.183774 0.372447 -0.033594 -0.322622 -0.382006 0.144407 0.174871 -0.276784 0.110335 0.115061 0.102894 0.125586 0.393878 0.223474 0.049002 0.112852 -0.075004 -0.038861 -0.077614 0.345206 -0.310376 -0.358801 0.212834 0.137424 0.054576 -0.002684 0.041681 0.157262 -0.074748 -0.145997 0.119235 0.247634 0.043737 0.045833 0.222876 0.047944 -0.118009 -0.061747 -0.203634 -0.126393 0.320699 -0.426783 0.063077 0.069171 -0.107983 0.295563 0.159084 0.377063 -0.064797 0.137813 -0.188255 0.080903 0.061874
471 -0.100226 -0.118008 0.260589 -0.171287 0.076993 -0.180179 0.069247 -0.275780 0.008710 -0.169716 -0.068413 -0.146438 -0.239519 -0.126724 0.074200 -0.135627 0.115884 -0.018299 0.358897 0.129405 0.200629 0.167176 0.017196 -0.250257 0.262064 -0.117047 0.030307 -0.423183 -0.184564 0.166072 -0.009247 0.375039 -0.241816 0.333160 -0.282646 0.011998 -0.141357 0.022475 -0.418438 -0.075152 0.025065 0.016438 0.335509 0.184065 0.041821 0.120922 -0.201756 0.064603 -0.392533 0.109868 -0.457083 -0.103226 -0.022844 0.372915 0.096766 -0.024942 -0.050538 0.069427 -0.422424 -0.026307 0.035147 0.064145 0.139016 0.152210 -0.052662 -0.096235 -0.105034 -0.036641 -0.238064 -0.089659 0.158201 0.193679 0.487425 -0.251576 0.342782 0.525334 0.089603 -0.090543 -0.063186 -0.096853 0.201521 0.276779 0.176574 0.207151 -0.267398 -0.083750 0.378577 0.280342 0.053156 0.188360 -0.128325 -0.150704 0.032667 -0.181590 0.300560 0.354793 -0.054256 -0.059753 0.160116 -0.171697 -0.019148 -0.074289 0.180071 -0.162096 0.083115 0.087559 0.402674 -0.103231 -0.117027 -0.027412 0.182544 -0.165702 -0.141356 -0.038174 -0.046256 0.297422 0.025143 -0.134820 -0.101980 0.061217 0.158739 0.030516 -0.016432 0.609472 -0.058469 0.080541 -0.060939 0.215501
552 -0.038845 -0.202995 0.025262 0.026040 -0.093768 -0.178528 0.293681 -0.348142 0.109785 -0.134385 -0.016130 0.045414 0.089020 0.052438 0.008755 -0.293251 0.073538 -0.282886 -0.109227 0.103488 -0.198753 0.188544 0.404444 -0.071548 0.068659 -0.308475 -0.019384 -0.345869 0.182090 0.001747 -0.003356 0.057396 0.137897 0.212891 -0.315429 0.137579 -0.031118 0.189033 -0.189485 0.259278 -0.002260 0.246043 0.466417 -0.448860 0.086712 0.170137 0.006219 -0.002820 -0.353122 -0.197843 -0.215323 0.158874 0.098272 0.186547 -0.034963 -0.181319 0.148678 0.370506 -0.172329 0.050539 -0.306725 0.086400 0.019957 -0.024317 0.147829 0.122837 -0.396099 0.428666 -0.116181 -0.119063 0.148852 0.377197 -0.377920 -0.170498 0.003439 0.184731 -0.110106 -0.135618 0.016439 -0.193811 -0.006712 -0.030473 -0.037929 -0.045209 -0.127864 0.101537 0.408949 0.036252 0.066432 0.065142 0.317698 -0.091714 0.111199 -0.073318 0.082917 0.125119 -0.165335 -0.118582 -0.076406 -0.185048 0.153087 0.011276 0.163057 -0.020837 -0.082682 0.121431 0.148263 -0.141012 -0.256390 0.361970 0.561922 -0.496764 -0.028181 -0.031770 0.186290 0.064890 -0.239042 0.181092 0.157654 0.154291 -0.001619 0.387019 0.176665 0.392133 0.157429 0.156756 0.075659 0.353001
379 0.088129 0.118714 0.202766 0.164497 -0.228261 -0.072812 0.395860 -0.115203 -0.116112 0.278865 0.121089 0.072893 0.332576 0.006666 -0.119662 -0.078927 0.216684 -0.246552 0.159643 0.031758 0.058257 0.519247 -0.079581 0.092311 0.041755 -0.057362 0.002408 -0.282433 -0.257613 0.256918 0.159745 0.123482 -0.070234 0.239579 -0.144584 0.066759 -0.128813 -0.112577 -0.246993 0.061696 0.281358 0.344544 0.139742 -0.285502 -0.037032 0.270898 -0.169763 -0.320799 -0.319276 -0.383279 -0.588040 -0.024235 0.234302 0.082527 -0.258278 -0.265686 0.076059 0.335278 -0.375438 -0.060542 -0.150740 -0.007315 0.213446 0.276994 0.245208 0.172687 -0.044112 0.195762 -0.232324 0.027375 0.416101 0.116173 0.138152 0.049197 0.473831 0.094561 0.212301 0.100075 -0.050568 -0.014386 0.201518 -0.384954 -0.185170 -0.084260 -0.103418 0.150239 0.362592 -0.070413 0.461287 0.263081 0.544267 0.240764 -0.085937 -0.039491 0.195837 0.113856 -0.105883 -0.112077 0.163257 0.132340 -0.036486 -0.320036 0.428512 -0.128650 0.026631 -0.360326 0.021562 -0.140527 -0.004147 0.458826 0.271112 -0.214519 -0.066162 -0.174755 -0.174326 0.087595 0.200390 -0.006341 -0.232601 -0.433921 0.384371 -0.098912 0.298258 0.143192 0.133898 0.063277 0.077353 0.016127
928 0.009232 -0.114594 -0.129832 -0.130861 -0.058968 -0.401705 0.039330 -0.239219 -0.084861 0.157903 -0.305115 0.149685 0.232884 -0.065295 0.230064 -0.318703 -0.007156 -0.199407 -0.307889 -0.075265 -0.120901 0.199291 0.096170 -0.071487 0.137406 -0.065710 0.053787 -0.309376 0.118511 0.144809 -0.120325 -0.175168 0.048417 0.230886 -0.156736 -0.070222 -0.102763 -0.019281 -0.096370 0.173284 0.166548 0.155783 -0.107883 -0.146456 0.155607 -0.086062 -0.200980 -0.197746 -0.099402 -0.393663 -0.322077 0.041240 0.150674 0.030581 0.078383 -0.159510 0.224847 0.392800 -0.243476 0.175117 -0.168586 -0.132566 -0.034591 -0.000848 -0.094819 0.175314 -0.038906 0.242352 -0.041680 0.124715 0.118958 0.008234 -0.157393 -0.087517 0.171053 0.058199 0.076834 -0.042385 -0.148161 -0.228640 0.048078 0.093158 -0.127513 -0.125390 -0.115850 0.122489 -0.099314 0.273000 0.168225 0.052980 0.193680 -0.130724 0.027555 -0.097579 0.100421 0.113305 -0.321184 -0.369834 0.198451 -0.091029 -0.105000 -0.163278 0.059757 0.144412 -0.326571 -0.100821 0.105927 -0.263474 0.071171 0.317562 0.256500 -0.064004 0.012024 -0.127940 -0.087172 0.085788 -0.003851 -0.255016 -0.046944 -0.413225 0.191246 0.183989 0.114450 -0.107695 0.050239 -0.104375 0.108545 -0.161087
459 -0.361258 -0.039783 0.132240 0.109224 0.243982 -0.014134 -0.019809 -0.309690 0.256311 0.132011 -0.183109 -0.120519 0.477738 -0.192387 0.141598 0.113015 0.295884 -0.105740 0.129784 0.181723 0.161844 -0.038199 0.101062 -0.168113 -0.022206 0.169259 -0.084496 -0.221375 0.165056 -0.356441 -0.159118 -0.324214 0.072513 0.009654 0.050638 0.101663 0.100295 -0.444868 -0.167479 0.440061 0.241310 0.172517 0.215015 0.088586 -0.004760 0.209554 -0.168549 -0.013926 -0.253312 0.072034 -0.247594 0.044967 0.319050 0.048056 0.092244 -0.333810 -0.367633 0.084461 -0.213004 0.288979 0.424380 -0.263816 0.084040 -0.034098 0.124974 0.452601 -0.060992 -0.004380 -0.600500 -0.282838 0.194443 -0.386912 0.322581 0.085478 0.089297 0.458748 0.338883 0.282781 -0.107222 0.033469 0.017081 0.204226 0.060816 -0.000350 -0.238656 -0.254144 -0.086234 0.250113 0.366790 0.176502 0.109732 -0.042990 0.003354 -0.013122 0.484347 -0.085130 -0.375001 -0.322238 -0.223932 -0.162777 0.142365 0.040106 0.082507 -0.026249 -0.140783 0.108120 -0.019591 -0.266556 0.218168 -0.061561 0.295263 0.236107 0.054422 -0.059200 0.081375 0.309722 -0.476779 0.012828 0.453616 -0.089889 0.084554 -0.375022 0.158525 -0.057548 0.125191 -0.119564 0.085130 -0.259175
1019 -0.354151 0.007100 0.189714 0.060432 0.181507 -0.130949 0.098635 -0.193092 0.114292 0.071257 0.135476 -0.082970 0.121599 -0.068594 0.235397 -0.256993 0.027159 -0.251640 -0.033211 0.051390 -0.089846 -0.030304 0.218946 -0.114326 -0.024096 -0.171657 -0.014686 -0.212119 0.085225 -0.182639 -0.118314 -0.122339 -0.058269 -0.015551 -0.110695 -0.067556 0.093860 -0.162960 -0.097072 0.251082 0.012508 -0.019541 0.245074 -0.114981 0.161680 0.260732 -0.112407 -0.004780 -0.240449 -0.091232 -0.134977 0.047536 0.310345 0.151193 0.104874 0.054229 -0.091020 0.083175 -0.118589 0.047434 0.122533 -0.038697 -0.144745 -0.054549 0.068940 0.303087 -0.047961 0.080448 -0.294401 -0.252782 0.162000 0.030541 0.082198 -0.005249 0.045206 0.323135 0.179204 0.112657 -0.023447 -0.059854 0.050769 0.217855 0.058481 -0.012915 -0.099522 -0.027941 -0.032808 0.056321 0.039530 0.143785 0.145520 -0.168733 0.082834 0.105780 0.191536 -0.069494 -0.117671 -0.351125 -0.154460 -0.228139 0.011460 0.102913 -0.023094 0.178315 -0.069459 0.018283 0.152766 -0.140785 -0.014128 0.115550 0.399580 0.132588 -0.052629 -0.037749 0.088962 0.204701 -0.172559 0.074894 0.390002 -0.061654 0.252853 -0.140197 0.192794 0.170813 -0.018274 0.006119 0.064560 -0.102451
414 -0.114382 -0.170119 0.432378 -0.246842 0.095886 -0.024841 0.180810 -0.203278 -0.017089 0.129049 -0.103839 -0.167293 0.080788 0.029755 0.259677 -0.122955 0.061278 -0.573961 -0.525582 -0.127180 -0.079519 0.408754 0.161656 -0.379583 0.259668 0.036766 -0.127944 -0.300919 0.304024 0.147005 -0.423561 0.198494 -0.282816 0.233976 -0.174851 0.261729 0.267016 0.302937 -0.166093 0.085858 0.109950 0.099368 -0.084120 -0.025769 0.021315 -0.055403 -0.183719 0.252572 -0.151027 -0.217958 0.103708 -0.003624 0.087564 0.284132 0.282835 0.053924 0.158366 0.007724 -0.165141 0.041764 -0.130243 0.027018 -0.204932 -0.270304 -0.019928 0.194657 0.344728 -0.033444 -0.399072 -0.134215 0.603653 0.117046 0.056313 0.307604 0.161633 0.341173 0.240288 0.050373 -0.300784 -0.416480 0.143912 0.263716 -0.077049 -0.083655 0.024789 0.257714 -0.113667 0.325552 0.063128 0.034285 0.215864 -0.205349 0.147148 -0.001005 0.186394 -0.062698 -0.391745 0.101063 0.315958 -0.009624 -0.089204 0.059294 0.047025 0.134114 -0.209279 0.251874 0.268835 -0.049697 -0.215671 0.292090 0.155402 -0.151785 -0.055226 -0.261264 -0.049510 0.490369 -0.086582 -0.098519 0.178708 -0.062011 0.441008 0.295162 0.247120 0.117673 -0.191935 -0.179153 0.178833 -0.150389
722 -0.050125 -0.176531 0.382432 -0.197411 0.025119 -0.178269 0.198594 -0.285005 -0.069641 0.176965 -0.126302 -0.125605 0.106152 0.044555 0.251039 -0.217531 0.071434 -0.528581 -0.619624 -0.038171 -0.136809 0.447860 0.154847 -0.368205 0.291384 0.035600 -0.114651 -0.319203 0.350922 0.162540 -0.409216 0.268189 -0.308661 0.286571 -0.212371 0.243667 0.222153 0.286260 -0.215019 0.036315 0.126197 0.061788 -0.137861 -0.095271 -0.019114 -0.016283 -0.289293 0.202294 -0.134934 -0.295045 0.058922 0.053317 0.043669 0.211147 0.296205 0.063124 0.189794 0.104959 -0.250011 0.105946 -0.360572 0.033774 -0.205249 -0.293999 0.030173 0.122730 0.215863 -0.024435 -0.324699 -0.155060 0.561685 0.187702 -0.050071 0.382920 0.122630 0.237415 0.218707 0.014137 -0.303316 -0.377352 0.104336 0.283491 -0.130922 -0.115049 0.079654 0.247967 -0.011527 0.357238 0.065410 0.017406 0.281436 -0.208668 0.106802 -0.050787 0.200229 0.069634 -0.471676 0.171275 0.272132 -0.015847 -0.117594 -0.045102 0.056740 0.089759 -0.216622 0.201060 0.235561 -0.014256 -0.251330 0.357775 0.290648 -0.171860 -0.021982 -0.271540 -0.173523 0.487131 0.014367 -0.091920 0.178207 -0.099727 0.373440 0.284150 0.194248 0.153469 -0.195637 -0.182465 0.084705 -0.146330
328 -0.216328 0.021285 0.134973 -0.162094 0.225982 -0.257016 0.160757 -0.251080 -0.057519 0.068427 -0.117146 -0.039407 0.143698 -0.026313 0.319505 -0.207845 0.243701 -0.194831 -0.161515 -0.049044 -0.006798 0.168863 0.142122 -0.178572 0.005153 -0.158162 -0.137908 -0.360429 0.042134 -0.193836 -0.034940 0.196057 -0.093729 0.139872 -0.308431 0.142208 0.072811 0.047616 -0.070313 0.074229 0.144654 -0.026050 0.112482 0.020597 0.208692 0.132167 -0.017915 0.122820 -0.101474 -0.003553 -0.158605 0.089880 0.064144 0.199517 0.133951 -0.068913 0.087255 0.062783 0.010465 0.104892 -0.078832 -0.048954 -0.078696 -0.205595 0.144707 0.226364 -0.074517 -0.044982 -0.019114 -0.165335 0.277512 0.104839 -0.034274 -0.020837 0.104824 0.237996 0.216692 0.142245 -0.141582 -0.089596 -0.005337 0.204725 0.125152 -0.102828 -0.063215 0.122772 0.054571 0.169422 0.106753 -0.082511 0.223902 -0.202219 0.089502 0.095430 0.121783 0.040484 -0.236186 -0.144958 0.067978 -0.256891 -0.079743 -0.153743 0.004555 0.037425 -0.105008 0.080722 0.082777 -0.091959 -0.061769 0.171383 0.344016 -0.172426 -0.085821 -0.090262 -0.045530 0.255428 0.024862 0.001631 0.175548 -0.188470 0.358323 0.026886 0.100665 0.230504 -0.087180 -0.055013 0.131539 0.031357
574 -0.110855 -0.223942 0.203402 0.079240 0.228868 0.004294 -0.089727 -0.324536 0.103183 -0.070647 -0.205049 0.111863 0.154991 -0.165230 0.256045 -0.110884 0.230612 0.082566 -0.008722 0.080295 0.003999 0.067134 0.073822 -0.128286 0.043977 0.002325 -0.116660 -0.291343 0.068905 -0.007015 -0.019145 -0.084108 -0.043699 -0.041008 0.172192 -0.023079 -0.025547 -0.375231 -0.301633 0.214843 0.156296 0.041714 0.133075 -0.183950 0.173523 -0.069074 -0.032322 -0.104347 -0.316730 -0.141477 -0.340943 -0.008607 0.316595 0.239382 0.169317 -0.136113 -0.114319 0.013339 -0.145496 0.208714 0.271177 -0.166381 -0.099705 0.103518 -0.161715 0.163724 0.016156 -0.013079 -0.261177 0.014262 0.100222 0.116623 0.112133 -0.261722 0.169429 0.161089 0.161645 -0.067921 0.024377 -0.099214 0.069538 0.108205 0.000557 -0.160013 -0.155336 -0.136391 -0.060268 0.029183 -0.006249 0.210361 -0.083468 0.013873 0.008171 -0.141127 0.443458 0.086932 0.044460 -0.263853 0.022134 -0.277838 0.051829 0.187820 0.186946 0.038267 -0.083710 0.136873 0.087383 -0.469040 0.096388 0.173994 0.199546 0.075714 -0.069200 0.141374 0.388307 0.064431 -0.282904 -0.077628 0.274894 -0.094979 0.153167 0.029211 0.091420 -0.105054 0.126452 -0.070423 0.043681 -0.006581
638 -0.272964 -0.058377 0.111264 0.053428 0.197897 -0.017443 0.025555 -0.256715 0.180593 0.072403 -0.152083 -0.070912 0.438164 -0.182844 0.095268 0.150077 0.251742 -0.038170 0.056020 0.188629 0.158426 0.018436 0.115972 -0.136263 -0.000523 0.143551 -0.105807 -0.214961 0.114211 -0.201789 -0.130127 -0.277701 0.068232 0.056254 0.008830 0.178057 0.031397 -0.322346 -0.169410 0.410383 0.234519 0.163513 0.129855 -0.009495 0.041567 0.133937 -0.104091 -0.023737 -0.206277 -0.006203 -0.213285 0.087972 0.285859 0.064521 0.089767 -0.332297 -0.284677 0.115193 -0.113799 0.253433 0.361036 -0.203086 0.087299 -0.008548 0.150585 0.396010 0.013075 0.006478 -0.482414 -0.135866 0.202458 -0.298602 0.225102 0.022155 0.134522 0.341574 0.294394 0.139887 -0.083258 -0.080585 0.000033 0.041370 0.064816 0.005546 -0.225179 -0.212678 -0.016933 0.257226 0.301016 0.107661 0.100927 0.039862 -0.064659 -0.122366 0.470380 -0.049843 -0.286974 -0.243111 -0.139424 -0.218121 0.133020 0.045212 0.125284 -0.047677 -0.127668 0.128106 0.084475 -0.264076 0.180933 0.049985 0.271600 0.127557 0.023595 -0.039173 0.079762 0.277173 -0.382369 -0.061532 0.377586 -0.162563 0.022581 -0.250269 0.174035 -0.015678 0.169210 -0.132886 0.110417 -0.133520
610 -0.229920 0.066697 0.047298 -0.170119 -0.027041 -0.284074 0.156561 0.000194 0.006050 -0.020905 -0.018625 -0.089118 0.090731 -0.115307 0.246725 -0.211003 0.279429 -0.233883 0.134602 -0.105310 0.180545 -0.178053 -0.062206 -0.210215 -0.165603 -0.288017 0.094635 -0.176867 -0.252796 -0.235274 0.068571 -0.027220 -0.215987 0.070039 -0.317668 -0.280433 0.029761 0.086589 0.059630 0.012585 0.139075 -0.076071 0.265125 -0.007940 0.002583 0.274582 0.030189 0.117404 -0.248057 -0.024952 -0.238063 0.077223 0.350967 0.264004 0.015644 0.084032 0.183554 0.281768 -0.073770 0.028314 0.223296 -0.059793 0.215528 0.018910 -0.001192 0.179862 0.040470 -0.259022 -0.106847 -0.079861 0.312971 0.074245 0.145092 -0.126311 0.183258 0.077234 0.158216 0.165517 0.007693 -0.052267 0.180285 -0.133374 0.023468 0.086737 -0.180142 0.021880 -0.013017 0.080394 0.411627 0.056036 0.234229 -0.273479 -0.116964 0.239841 0.305461 -0.077180 0.005714 -0.344627 0.095523 -0.273930 0.009965 -0.222572 -0.077528 0.192222 0.081062 -0.097952 0.197880 0.019762 0.051716 0.089493 0.364479 -0.202691 -0.247199 -0.174873 -0.130974 0.178781 -0.051330 0.050738 0.118869 -0.388679 0.488823 0.103870 0.370212 0.468036 0.023883 0.102987 0.050282 -0.064185
628 -0.101214 0.020029 0.129970 -0.300937 0.191061 -0.380193 0.003099 -0.178837 0.024445 0.127314 -0.304193 0.082570 0.175605 0.016941 0.409526 -0.285673 0.313229 -0.108361 -0.021963 -0.076787 0.010482 0.341668 0.120786 -0.085574 -0.080357 -0.096025 -0.170510 -0.605364 -0.098882 -0.298578 0.066192 0.025733 -0.101795 0.111170 -0.215899 0.115693 0.131416 0.073345 -0.009651 0.032679 0.205415 0.193798 0.188880 0.132321 0.335901 0.092983 0.041241 -0.031867 -0.126777 0.093534 -0.287732 0.235336 -0.052291 0.182786 0.006214 -0.130243 0.093893 0.074092 0.223901 0.305240 0.055657 -0.140321 0.028352 -0.252450 0.102594 0.176935 -0.070702 -0.164171 0.082721 -0.055401 0.226304 -0.006499 -0.135208 -0.318006 0.164932 0.241739 0.311107 0.210893 -0.081352 -0.121860 0.020990 0.121109 0.147231 -0.070764 -0.012784 0.100185 0.249093 0.031128 0.106584 -0.144980 0.253992 -0.176346 0.089310 -0.004814 -0.007807 0.336682 0.101155 0.001818 0.169998 -0.146317 -0.154903 -0.260336 0.074475 -0.110494 -0.042371 -0.055279 -0.027312 -0.200474 -0.190663 0.026587 0.144567 -0.281501 -0.200495 -0.157618 -0.049794 0.114046 0.055319 0.077964 0.062478 -0.161980 0.325733 0.160444 0.173473 -0.058047 -0.112433 -0.041068 -0.082333 0.187689
496 -0.025573 -0.092763 0.316476 0.136434 -0.008491 0.169074 0.175746 -0.225874 0.162252 0.218749 0.114257 -0.074296 0.333933 0.086451 -0.088511 0.207311 0.132904 -0.193902 -0.034423 -0.037393 0.115582 0.245210 -0.093012 -0.132957 0.032790 -0.014593 -0.133447 -0.237256 -0.050851 0.267557 -0.222489 -0.261069 -0.044865 0.019494 0.178900 0.136418 -0.039341 0.046427 -0.055492 0.362289 0.225507 0.252691 0.133254 -0.198347 -0.076164 -0.055460 0.036334 -0.206884 -0.276310 -0.341942 -0.173183 -0.119634 0.207893 0.207280 0.089936 -0.299594 -0.013299 0.042809 -0.351082 0.098474 0.425669 0.014656 0.176686 0.175376 -0.018598 0.142541 0.317617 0.026973 -0.404611 0.069280 0.358696 -0.019278 0.259248 0.051954 0.474060 0.484819 0.117805 -0.015361 -0.021216 -0.025711 0.227406 -0.160046 0.030565 -0.022498 -0.203523 -0.043526 -0.016861 -0.116953 0.460671 0.253600 0.084572 0.335977 0.089925 -0.087065 0.198182 0.033871 -0.017640 -0.213277 0.110754 0.053080 0.028066 0.091604 0.263753 -0.031553 -0.076228 0.081641 0.119436 -0.310306 0.157605 0.195881 0.054106 0.030718 0.094667 -0.109891 0.214470 0.291312 -0.047018 -0.053366 0.182644 -0.230778 0.344605 0.009780 0.161374 -0.059087 0.234830 0.032855 0.194411 -0.104918
611 0.045642 -0.120775 0.160030 -0.069370 0.002286 -0.242991 0.253367 -0.241390 -0.069737 0.130384 -0.166444 0.042355 0.158709 0.020426 0.189866 -0.285468 0.162764 -0.228532 -0.327619 -0.039699 -0.090510 0.373682 0.041232 -0.130216 0.157697 -0.037290 -0.055991 -0.300558 0.063723 0.084197 -0.076140 0.210600 -0.135031 0.166984 -0.182198 0.111529 -0.014938 0.135797 -0.137826 0.044027 0.187713 0.134805 -0.108078 -0.229136 0.086788 -0.032031 -0.192056 -0.089498 -0.109276 -0.266949 -0.334624 0.080714 0.104403 0.085356 0.068638 -0.061094 0.294091 0.193016 -0.216832 0.095244 -0.322561 -0.072972 -0.004967 -0.047581 0.041301 0.088106 0.028459 0.090339 -0.036745 -0.030666 0.305740 0.152753 -0.134634 0.031447 0.166427 0.021802 0.150089 -0.046421 -0.130525 -0.162480 0.076315 -0.003596 -0.136636 -0.171481 -0.003155 0.191160 0.073818 0.202630 0.185530 0.036822 0.343811 -0.070365 0.062779 -0.084428 0.179021 0.211595 -0.265933 -0.126714 0.180261 -0.072329 -0.129019 -0.191409 0.182332 -0.008218 -0.163325 -0.089109 0.048382 -0.226623 -0.106532 0.358168 0.302194 -0.169785 -0.046165 -0.165141 -0.069812 0.153878 0.162157 -0.102121 -0.010774 -0.338960 0.219678 0.173405 0.085996 0.072165 -0.041504 -0.075694 0.057936 -0.111331
687 -0.128077 0.115628 0.209557 0.081405 -0.085325 -0.230871 0.246115 -0.401880 -0.054657 0.107762 0.151348 -0.193018 0.026482 0.008851 0.117497 -0.178550 0.231162 -0.090225 0.386137 0.054692 0.171626 0.076692 -0.165504 -0.109202 0.182232 -0.195614 0.090600 -0.370879 -0.261353 0.041973 0.180004 0.295749 -0.196059 0.197390 -0.418382 -0.109578 -0.266103 -0.045973 -0.171879 -0.114368 0.165778 -0.098284 0.177893 0.126129 -0.060860 0.394198 -0.230878 -0.097387 -0.339392 0.111194 -0.576138 -0.164131 0.114813 0.194768 -0.026901 -0.225776 0.092171 0.261946 -0.449816 0.012785 -0.027391 0.011369 0.315316 0.239950 0.201235 0.063101 -0.183838 0.078706 -0.040195 -0.166061 0.152136 0.026152 0.318097 0.001337 0.319454 0.383289 0.088445 0.064335 -0.093257 0.132715 0.213866 0.041926 0.068293 0.095344 -0.253508 -0.054000 0.371217 0.114079 0.268306 0.304700 0.150505 -0.076963 0.079218 0.089194 0.349410 0.227706 -0.111694 -0.283860 0.042796 -0.158249 -0.058343 -0.207949 0.242052 -0.000196 0.016831 -0.129478 0.155854 -0.053732 0.015074 0.061415 0.429409 -0.021317 -0.089276 -0.054945 -0.236415 0.334423 0.166839 -0.135902 -0.104458 -0.291231 0.419793 -0.381800 0.075011 0.567935 0.031176 0.124760 0.017021 -0.021361
137 -0.000971 -0.080706 0.004955 -0.192320 0.259643 -0.169468 -0.082108 -0.298250 0.021568 0.154405 -0.405258 0.122432 0.256159 0.027827 0.322198 -0.177596 0.339683 -0.066534 -0.135900 -0.057107 -0.015184 0.200388 0.010727 -0.051566 0.064565 -0.051347 -0.141594 -0.463488 0.083500 -0.143784 -0.036763 0.253815 -0.081910 0.067949 -0.140945 0.135401 0.093851 -0.061268 -0.247703 -0.042719 0.299152 0.023094 -0.073609 0.104523 0.148254 0.039651 -0.032388 -0.027525 -0.167612 -0.030917 -0.401280 0.103861 -0.017836 0.175146 0.165354 -0.144517 0.139576 0.117672 -0.147465 0.293586 -0.114466 -0.088803 -0.024745 -0.081088 -0.083582 0.197956 -0.153243 0.017280 -0.064321 -0.176879 0.163363 0.179466 -0.122184 -0.107436 0.106627 0.212254 0.088484 0.010261 -0.178023 -0.096931 -0.007609 0.262344 0.093245 -0.180699 -0.152222 0.003853 -0.000006 0.248044 0.035653 -0.020704 0.078374 -0.309594 0.129209 -0.063726 0.032000 0.233684 -0.296912 -0.369160 0.286975 -0.137869 -0.237614 -0.128177 0.151919 -0.091970 -0.210203 0.115979 -0.012910 -0.329749 0.115900 0.193515 0.247181 -0.008812 0.071203 -0.090275 0.028286 0.140982 0.068159 -0.117101 0.098304 -0.209789 0.247241 0.095959 0.033380 -0.055400 0.010950 -0.044903 0.106451 -0.176081
953 -0.164389 -0.159591 -0.172785 0.082046 0.142253 -0.216471 0.176573 -0.365692 -0.096405 0.123324 -0.157783 0.242684 0.212218 0.039511 0.155858 -0.324051 0.118558 -0.083328 -0.238738 0.051660 -0.142242 0.260548 0.181977 0.049808 -0.089318 -0.091855 -0.100624 -0.311683 0.213439 0.073409 -0.169636 -0.196075 0.264083 -0.078453 -0.126796 0.113960 -0.093925 -0.079811 -0.050773 0.216900 0.165399 0.266204 0.289034 -0.183202 0.249296 0.030469 0.049379 -0.276528 -0.198113 -0.340161 -0.410557 -0.025897 0.237099 0.143917 0.273739 -0.252661 0.073240 0.305291 -0.128041 0.308624 -0.020681 -0.151395 -0.146452 -0.073728 -0.171997 0.195342 -0.047785 0.344998 0.123113 0.004906 0.168480 0.077489 -0.214706 -0.291147 0.078124 0.370967 -0.107004 -0.194341 -0.094506 -0.116867 -0.097049 0.034341 0.189472 -0.139087 -0.287742 -0.067267 -0.132868 0.235164 0.072552 0.281464 0.107540 -0.004533 0.102296 -0.095331 0.045471 -0.012504 -0.268691 -0.551428 0.138179 -0.142386 -0.010416 -0.016184 0.173526 -0.025008 -0.323753 0.061718 0.105892 -0.368578 0.036469 0.226239 0.358279 -0.141778 -0.063163 0.021588 0.338516 0.104449 -0.068937 -0.280098 0.223744 -0.296962 0.185172 0.142175 -0.106382 -0.122627 0.144556 0.033073 0.101339 -0.165491
1015 -0.178969 0.064217 0.155113 -0.307945 0.468022 -0.245179 -0.004674 -0.212485 0.084592 0.129055 -0.365791 0.105227 0.325452 0.057686 0.478282 -0.089570 0.552920 -0.035606 -0.106902 -0.188192 0.000231 0.288943 -0.020516 -0.114199 0.021589 -0.142132 -0.261119 -0.478864 -0.039976 -0.508492 0.151433 0.292449 -0.030791 -0.013187 -0.182983 0.272499 0.242915 -0.122607 -0.301710 -0.012832 0.285535 -0.023913 0.105267 0.250318 0.448413 0.133302 0.105995 0.060314 -0.212619 0.207793 -0.354484 0.136030 0.079752 0.272157 0.130213 -0.198840 -0.010183 -0.162154 -0.017865 0.254375 0.085506 -0.228168 -0.030383 -0.324187 0.100131 0.375107 -0.171013 -0.051035 0.007844 -0.393605 0.174041 0.129304 -0.114576 -0.127295 0.222064 0.304260 0.217769 0.147248 -0.105404 0.063097 -0.116330 0.346342 0.097827 -0.115981 -0.099759 0.090499 0.158205 0.305879 0.118380 -0.306439 0.114883 -0.346747 0.207405 0.011228 -0.058767 0.319405 -0.198087 -0.434324 0.111647 -0.331575 -0.461867 -0.221579 0.137028 -0.168267 -0.021736 0.126068 0.024204 -0.392900 0.139544 0.055067 0.208154 -0.080231 0.038036 -0.101396 -0.039349 0.227788 0.054670 0.049588 0.276268 -0.135990 0.274321 -0.103764 0.083250 -0.007851 -0.035461 -0.101182 0.168353 -0.073459
548 -0.075919 -0.053708 0.338586 -0.034193 0.145362 -0.178059 0.259319 -0.704498 -0.016245 0.234190 -0.251028 -0.086893 -0.051795 0.064133 0.263832 -0.261936 0.158593 -0.131308 0.041903 -0.023205 0.043692 0.211038 -0.053533 -0.266152 0.181830 0.008315 -0.128411 -0.513358 0.139743 -0.067172 -0.070375 0.209351 -0.069046 0.076427 -0.152933 0.060131 -0.076813 0.052823 -0.145542 0.099631 0.159060 0.046341 0.036190 0.223635 0.211995 0.129181 -0.155944 -0.081714 -0.230968 0.086565 -0.361874 -0.101904 -0.091033 0.291368 0.334136 -0.286172 0.063239 -0.007944 -0.185547 0.324746 0.073638 -0.094006 0.069838 -0.209180 0.014375 0.133575 -0.185068 -0.026971 0.051751 -0.007791 0.239257 -0.134033 0.034797 -0.012833 0.109504 0.560660 0.109625 -0.109677 -0.192998 0.055458 -0.044411 0.376610 0.203162 0.060003 -0.137816 -0.173530 0.093104 0.093085 -0.156522 0.229655 -0.084543 -0.132521 0.339254 0.049082 0.228654 0.176101 -0.021525 -0.019594 0.008686 -0.088215 -0.021232 -0.013927 0.156457 -0.072863 -0.107390 0.192024 0.054828 -0.276625 -0.044010 -0.111011 0.221681 -0.109376 0.001033 0.183065 -0.002196 0.398558 0.091014 -0.046413 0.107729 0.002195 0.349602 -0.196745 -0.186824 0.071262 -0.009544 -0.072775 -0.072085 -0.116122
311 0.147079 -0.174780 0.242948 0.022357 0.241988 -0.025863 -0.043102 -0.219786 0.052182 -0.050233 -0.235272 0.173387 0.074126 -0.114871 0.121960 -0.110264 0.439451 0.260921 0.206202 0.186218 0.241333 0.372686 -0.064927 0.037806 -0.027063 0.032868 -0.148611 -0.477783 -0.307046 -0.070137 0.306403 0.246529 -0.174518 0.062653 0.048414 0.061451 -0.099955 -0.237826 -0.439673 0.069502 0.298090 0.246182 0.111989 -0.186535 0.028002 -0.019052 -0.036574 -0.230629 -0.387752 -0.028336 -0.699582 0.166413 0.273593 0.295495 -0.020041 -0.090557 -0.021195 -0.092015 -0.248940 0.167037 0.087345 -0.093813 0.148295 0.292478 0.079654 -0.013933 -0.107891 -0.170640 -0.254130 0.020423 0.071549 0.292412 0.278574 -0.420107 0.423197 0.032387 0.218125 -0.156293 0.030668 0.060831 0.122311 -0.139333 0.020180 -0.139589 -0.104551 -0.105711 0.304046 -0.051304 0.223583 0.180066 0.096897 0.188052 -0.114865 -0.357795 0.348575 0.444368 0.193002 -0.224635 0.144514 -0.132526 -0.121247 -0.124666 0.374860 -0.313278 0.137062 -0.220876 -0.014165 -0.568882 0.112417 0.286365 0.254665 0.015816 -0.009774 0.047513 0.219181 -0.066885 0.193843 0.016184 0.001519 -0.247686 0.101155 -0.020155 0.062309 0.024671 0.134642 0.055436 -0.125026 0.084546
65 -0.177487 -0.090166 0.112172 -0.075459 0.090626 -0.112955 0.124781 0.004381 0.076351 -0.105233 -0.021239 -0.063986 0.016978 -0.126225 0.212237 -0.118891 -0.004351 -0.255375 0.067063 0.079938 0.072837 -0.010828 0.222423 -0.055731 -0.033927 -0.118767 0.027346 -0.106701 -0.134293 0.020908 0.030504 -0.081280 -0.183651 0.132635 -0.063754 -0.173479 -0.054286 -0.072095 -0.130899 0.185932 0.061339 0.188615 0.254252 -0.288137 0.092243 0.009225 -0.087530 0.075360 -0.230159 -0.171019 -0.221531 0.026428 0.381063 0.134668 -0.010154 -0.045659 0.078515 0.188781 -0.023189 -0.051760 0.159174 0.007410 0.013350 0.176389 0.044694 0.167868 0.051610 -0.073916 -0.336911 0.104778 0.188365 0.166069 0.109251 -0.199432 0.171272 0.011327 0.307593 0.074026 0.022470 -0.249130 0.218685 -0.123301 -0.129460 0.043328 -0.026162 0.077206 0.170232 0.002748 0.231307 0.072563 0.194055 0.043948 -0.084939 -0.018500 0.321763 -0.019199 0.116772 -0.261651 -0.012289 -0.223706 0.196416 -0.012698 0.003623 0.140683 0.003229 -0.220455 0.250407 -0.185361 -0.089260 0.268344 0.310426 -0.171626 -0.162390 -0.047723 0.000084 0.066406 -0.123401 0.085919 0.049861 -0.171241 0.306703 0.107374 0.349828 0.219216 0.082649 -0.040792 -0.018535 0.219199
263 -0.004619 -0.205529 0.122770 -0.229728 0.071331 -0.132258 -0.064154 -0.092989 0.006067 -0.105804 -0.144428 -0.017368 -0.159308 -0.147207 0.075522 0.013177 0.151818 -0.031885 0.362641 0.208820 0.163366 0.156051 -0.026269 -0.163993 0.141334 -0.053075 0.138792 -0.366802 -0.104831 0.135776 -0.021184 0.217649 -0.245732 0.346417 -0.179635 0.019962 -0.054142 0.001714 -0.464986 -0.083309 0.071861 0.207942 0.275520 0.155549 -0.131085 0.034754 -0.127233 0.009207 -0.461174 -0.012762 -0.510796 0.010687 0.043912 0.257370 0.054098 -0.004144 -0.064453 0.115294 -0.459519 0.085906 0.099933 0.078410 0.134161 0.170517 -0.123237 -0.054093 -0.090180 -0.066355 -0.426011 -0.059496 0.150288 0.167313 0.519368 -0.311828 0.384295 0.464985 0.116806 -0.091134 -0.107142 -0.171500 0.187490 0.094480 0.018446 0.224711 -0.187691 -0.146488 0.391113 0.215033 0.208290 0.198701 -0.064892 -0.152625 -0.051959 -0.234407 0.216648 0.302101 -0.064713 -0.152329 0.377605 0.054351 -0.065984 -0.011130 0.197592 -0.265160 0.127652 0.094756 0.325650 -0.106215 -0.004682 0.000299 0.047470 -0.088902 -0.055949 -0.139601 -0.095479 0.116635 -0.007476 -0.098220 -0.196836 0.059451 0.096740 0.170341 0.026482 0.441740 -0.021469 0.048787 -0.032817 0.138073
674 -0.150111 -0.002214 0.246728 -0.350065 0.340477 -0.195096 0.107254 -0.206744 0.085904 0.011279 -0.243672 -0.025388 0.218376 -0.016266 0.306496 -0.062515 0.416372 -0.065163 -0.189185 -0.201932 -0.039533 0.284147 0.064118 -0.262724 0.136880 -0.173162 -0.255077 -0.465301 -0.030024 -0.279226 0.065093 0.355027 -0.059533 0.091012 -0.172357 0.316897 0.171009 0.000288 -0.347306 0.026077 0.193348 -0.075940 0.110965 0.209368 0.365878 0.093504 0.056895 0.125680 -0.255122 0.127029 -0.178023 0.105863 0.016587 0.325025 0.185911 -0.134226 -0.032156 -0.145036 -0.064216 0.112147 0.008133 -0.160894 -0.067655 -0.318597 0.109484 0.313306 -0.085031 -0.060358 -0.092050 -0.303761 0.262995 0.206767 -0.087045 -0.023686 0.250772 0.307998 0.172069 0.059358 -0.063554 -0.004039 -0.026373 0.345866 0.101135 -0.061207 -0.086000 0.108240 0.193460 0.364818 0.011678 -0.325726 0.069653 -0.272059 0.210281 -0.076374 0.033226 0.328211 -0.210660 -0.272740 0.101773 -0.292819 -0.422567 -0.206742 0.098977 -0.159799 -0.044628 0.182397 0.184336 -0.272570 -0.019423 0.093816 0.194766 -0.139110 0.029018 -0.124604 -0.060517 0.352745 0.032657 -0.057870 0.239604 0.001381 0.245568 0.005654 0.105381 0.078849 -0.046608 -0.090699 0.164702 0.058132
301 0.007408 -0.043245 0.106723 -0.111758 -0.081947 -0.475667 0.035397 -0.448883 0.150406 0.183120 -0.281570 -0.071742 0.051901 0.014274 0.204557 -0.251450 0.111909 0.001177 0.216173 0.153487 0.040295 0.080020 0.119666 -0.145365 0.124598 -0.187695 0.025076 -0.585776 -0.066314 0.018807 -0.015806 0.049327 -0.231866 0.307718 -0.075015 -0.118645 -0.173129 -0.026845 -0.193148 0.003999 0.275430 0.042454 0.236578 0.060348 -0.048201 0.227727 -0.189716 -0.230585 -0.214575 0.033924 -0.431011 0.071435 -0.175125 0.085396 -0.003163 -0.262624 0.065011 0.318844 -0.256975 0.196194 -0.005376 0.027019 0.312812 0.147393 0.041308 -0.106903 -0.204326 -0.061454 -0.124620 0.053172 0.012066 0.044559 0.041915 -0.144843 0.176133 0.383671 0.116628 0.003270 -0.088159 0.033162 0.219199 0.179414 0.173438 0.139204 -0.234184 -0.197514 0.488901 -0.031371 0.117193 0.182267 0.138032 -0.073550 0.108643 -0.144789 0.238733 0.563158 -0.078288 -0.034982 0.139429 -0.079056 0.029799 -0.319796 0.203947 -0.127614 -0.108794 -0.120068 0.120621 -0.086571 -0.130166 0.036071 0.328759 -0.006984 -0.030458 -0.088673 -0.154644 0.165809 0.150028 -0.057550 -0.078145 -0.010699 0.105427 0.064395 0.158820 0.268687 0.066569 0.046551 -0.168970 0.095922
525 0.019116 -0.352696 0.268469 0.066277 0.217093 -0.011544 -0.056341 -0.364050 0.100014 0.032669 -0.199562 0.191093 0.181776 -0.136644 0.255302 0.022516 0.353518 0.187947 -0.034726 0.101605 0.032685 0.191392 -0.058881 -0.107852 -0.015957 0.037384 -0.149179 -0.329008 0.057907 0.035747 -0.002709 -0.013879 -0.086174 -0.095060 0.271119 -0.002153 -0.008076 -0.305398 -0.394112 0.184576 0.196179 0.124156 0.066467 -0.181041 0.103319 -0.185078 0.029201 -0.156459 -0.364799 -0.234624 -0.459252 0.024195 0.315054 0.259206 0.164910 -0.162649 -0.083012 -0.116821 -0.297312 0.275324 0.283575 -0.197307 -0.011700 0.148615 -0.189979 0.089918 0.068421 -0.001921 -0.307045 0.046559 0.090007 0.128075 0.120119 -0.289513 0.306855 0.195473 0.180744 -0.177725 0.021334 -0.007882 0.082616 -0.035460 -0.061890 -0.216754 -0.091477 -0.253329 -0.027525 -0.024694 0.121585 0.213036 -0.098000 0.123160 0.027098 -0.277346 0.449239 0.212990 0.101345 -0.267186 0.056259 -0.191465 -0.054478 0.231767 0.286932 -0.078535 0.044108 0.121383 0.000326 -0.585341 0.200470 0.237413 0.163860 0.185099 -0.011414 0.149194 0.412819 0.062422 -0.133147 -0.077663 0.331820 -0.135233 0.093274 0.027844 0.038563 -0.285100 0.220049 -0.038106 0.061723 -0.096970
659 -0.200130 -0.030494 0.129862 -0.094399 0.168014 -0.333993 0.284149 -0.334206 -0.015312 -0.013292 -0.032992 0.253718 0.044795 -0.075958 0.166410 -0.208306 0.301398 0.015864 -0.029816 0.091491 0.001990 0.346101 0.060103 -0.080971 -0.007268 0.009122 -0.085430 -0.439956 -0.060955 -0.132241 0.267669 0.061411 0.005321 0.158156 -0.075437 0.010480 0.070978 -0.056094 -0.144205 0.266461 0.175662 0.235798 0.283957 -0.311011 0.090757 -0.066871 0.066402 0.003157 -0.252422 0.075967 -0.295579 0.219704 0.254133 0.172918 -0.029603 -0.184260 0.050574 -0.008014 -0.044293 0.052665 -0.260162 -0.019683 0.022760 -0.187530 0.344111 0.107342 -0.325850 0.061772 -0.100362 0.136335 0.130891 0.138094 0.051291 -0.277243 0.138264 0.023194 0.282430 -0.066870 -0.018009 0.099258 0.008210 -0.102336 0.061432 -0.156453 -0.044771 0.010704 0.329915 0.008729 0.126925 0.011783 0.256663 0.131617 -0.005406 -0.183432 0.279803 0.109146 0.061267 0.098116 -0.025179 -0.072382 -0.039598 -0.077610 0.275044 -0.125794 0.110609 -0.061275 0.025717 -0.331011 -0.102894 0.269771 0.399537 -0.361414 -0.199141 0.035370 0.161548 0.074442 -0.159902 0.308959 0.087650 -0.161243 0.249781 0.111651 0.144401 0.216541 0.066584 -0.085190 -0.100576 0.093712
822 -0.171906 -0.022442 -0.258272 -0.173021 0.213721 -0.478788 0.036018 -0.286835 -0.249105 0.172081 -0.316428 0.293295 0.326568 0.001433 0.308541 -0.370054 0.276789 -0.096706 -0.328986 -0.140887 -0.080239 0.182532 0.059300 -0.040559 -0.120639 -0.126289 -0.095317 -0.241466 0.210126 -0.030425 -0.152187 -0.205328 0.201790 0.070610 -0.121853 0.013041 -0.032149 -0.191326 -0.136460 0.123643 0.250204 0.070052 -0.033524 -0.211933 0.335351 -0.015327 0.040509 -0.159104 -0.114712 -0.357084 -0.396116 -0.016433 0.332880 0.072477 0.184595 -0.224190 0.100150 0.287026 -0.034796 0.217427 -0.098905 -0.225948 -0.072522 -0.130223 -0.208743 0.276290 0.003233 0.313995 0.094340 0.027529 0.113502 0.212502 -0.224389 -0.272954 0.148066 0.103715 0.029019 -0.072697 -0.100254 -0.147823 -0.111671 0.144138 0.094896 -0.180381 -0.253206 -0.035427 -0.235096 0.308363 0.188832 0.076039 0.037627 -0.143619 0.068586 -0.081404 0.038910 0.033619 -0.324484 -0.547015 0.266656 -0.243247 -0.185692 -0.117054 0.171543 0.083119 -0.361260 0.073000 0.195626 -0.300953 0.158158 0.301735 0.323683 -0.148811 -0.067984 0.009804 0.221177 0.017330 -0.088454 -0.288751 0.155909 -0.492363 0.186694 0.285773 0.048692 -0.140608 0.144713 -0.088255 0.241463 -0.309332
208 0.031836 -0.103001 0.042069 -0.208028 -0.093394 -0.223523 -0.011277 -0.342820 0.035587 0.115621 -0.203220 -0.058557 0.159936 -0.074753 0.053649 -0.244299 -0.002808 -0.246898 0.008556 -0.006415 -0.104695 0.137377 0.224345 -0.222084 0.166023 -0.078428 0.051987 -0.439348 0.128973 0.147178 -0.166569 -0.172782 -0.017878 0.272777 -0.116596 -0.035879 -0.019548 0.166441 -0.114934 0.212126 0.058490 0.120011 0.159773 0.039980 0.159498 0.195799 -0.080363 -0.072070 -0.178552 -0.251186 -0.140439 0.037632 -0.047208 0.182542 0.163109 -0.071694 -0.039892 0.292232 -0.128798 0.234893 0.060522 -0.097683 -0.013770 -0.014342 -0.123698 0.128928 0.021652 -0.002288 -0.244015 0.065487 0.249473 0.049022 -0.027570 -0.122429 0.132681 0.382288 0.110919 -0.067017 -0.089273 -0.296862 0.126069 0.210619 0.100554 0.079294 -0.096253 -0.002218 0.102593 0.075848 -0.037382 0.111841 0.147099 -0.159202 0.127580 -0.014628 0.162368 0.025489 -0.045972 0.106800 0.201610 -0.016470 0.033420 -0.085189 0.072796 -0.009283 -0.215797 0.091665 0.109072 -0.137605 -0.177619 0.058129 0.172262 -0.288260 -0.164488 -0.185641 0.032940 0.075374 -0.177229 -0.065883 -0.032125 0.022017 0.261281 0.308089 0.120531 0.030791 0.018981 0.121483 -0.027854 0.129216
73 -0.213690 0.022316 -0.041533 -0.204795 0.097931 -0.232081 0.097684 0.038572 0.063031 0.038848 -0.029174 0.033350 0.022603 -0.031338 0.352942 -0.281564 0.213403 -0.320063 0.203602 -0.181770 0.165484 -0.358861 -0.086384 -0.195546 -0.199908 -0.326602 0.147548 -0.088632 -0.085567 -0.301276 0.016432 -0.228416 -0.195079 -0.137052 -0.128516 -0.508857 0.080191 0.017187 0.058946 0.065031 0.147274 -0.069673 0.308800 -0.054860 -0.036053 0.296672 0.054397 0.099500 -0.395673 -0.139411 -0.342341 0.036846 0.438021 0.196897 0.084329 0.075837 0.181482 0.352723 -0.190760 0.145637 0.369782 0.011794 0.200341 0.044139 -0.227423 0.267811 -0.020847 -0.286684 -0.173132 -0.064972 0.292720 0.153356 0.062658 -0.273300 0.148290 0.075025 0.075165 0.039089 0.043877 -0.088906 0.146489 -0.174657 0.014029 0.199679 -0.154565 -0.163745 -0.144576 -0.061145 0.403650 0.246349 0.108055 -0.326720 -0.090436 0.361855 0.226035 -0.118943 0.173075 -0.489828 0.172583 -0.265911 0.040097 -0.038727 -0.143353 0.294007 0.083351 -0.038904 0.255842 -0.163927 0.107339 -0.018010 0.350063 -0.158767 -0.206126 -0.107468 0.003177 0.029977 -0.225470 0.234051 0.196536 -0.352442 0.523470 0.187029 0.392199 0.468879 0.110564 0.114592 -0.041127 -0.235222
644 -0.153246 -0.096979 0.241815 -0.197714 0.243798 -0.048364 -0.028497 -0.180645 0.228233 0.242402 -0.331893 0.012806 0.673736 -0.048147 0.154014 0.416259 0.444364 -0.002791 -0.192473 0.115993 0.149253 0.292820 0.077059 -0.156457 -0.015020 0.384969 -0.186612 -0.340667 0.163683 -0.286022 -0.158258 -0.126771 0.060674 0.112871 0.116605 0.352016 0.203283 -0.292472 -0.401555 0.408130 0.242505 0.247288 -0.031901 0.087480 -0.038059 -0.021858 0.030352 0.036509 -0.146615 -0.100785 -0.187181 0.199859 0.306512 0.028881 0.036406 -0.406122 -0.327673 -0.178305 -0.200900 0.328633 0.320088 -0.264680 0.084537 -0.150825 0.258405 0.402409 0.029131 -0.066563 -0.688545 -0.158624 0.330190 -0.266380 0.234501 0.235867 0.306950 0.316382 0.419663 0.066245 -0.158604 -0.017768 -0.047081 -0.018110 -0.038325 -0.049742 0.001153 -0.167577 0.076616 0.251247 0.472976 0.025291 0.205531 0.132654 0.037541 -0.210384 0.360556 0.065674 -0.445622 -0.081198 -0.010208 -0.037153 -0.091299 -0.008494 0.311155 -0.335257 -0.062553 0.110600 -0.044955 -0.309006 0.309107 0.108133 0.162904 0.132713 0.172321 -0.063799 -0.020103 0.322569 -0.312694 0.062034 0.329624 -0.223660 0.086186 -0.226762 0.186096 -0.323824 0.264725 -0.228519 0.178370 -0.194523
280 -0.075036 0.043945 0.180870 -0.278327 0.133959 -0.326928 -0.059903 0.011614 0.135566 0.089078 -0.106424 0.023058 0.132796 0.155605 0.438920 -0.147996 0.262354 -0.206247 0.055250 -0.159887 0.079021 0.297131 0.033876 -0.027223 -0.042126 -0.135486 -0.035915 -0.472072 -0.208988 -0.292462 0.113289 -0.076639 -0.137233 -0.017418 -0.169642 0.119980 0.112738 0.115816 -0.162811 0.021053 0.165764 0.179449 0.220585 0.220565 0.178496 0.246028 0.025993 -0.102615 -0.242680 0.181952 -0.309379 0.225013 0.148842 0.208838 -0.131149 -0.137799 0.076289 -0.044374 0.085203 0.224283 0.223769 -0.092071 0.157365 -0.172694 0.175484 0.266475 -0.004249 -0.060010 0.010596 -0.188945 0.205754 -0.000117 -0.103411 -0.241220 0.365278 0.227267 0.211520 0.179906 0.012891 -0.070214 0.059682 -0.088215 -0.055824 0.072867 0.045362 0.080839 0.471247 0.010223 0.293947 -0.077474 0.193864 -0.113575 0.046590 -0.059458 -0.135702 0.514229 0.124247 -0.280957 0.089587 -0.154184 -0.372003 -0.226610 0.141305 -0.047549 0.119647 -0.168383 0.054809 -0.165997 -0.109163 -0.040343 0.122457 -0.025402 -0.121233 -0.197945 -0.231156 0.181295 0.105455 0.153477 0.118871 -0.212037 0.255913 -0.069285 0.267696 -0.057763 0.011869 -0.077119 -0.086166 0.076447
42 -0.102810 -0.067088 0.181837 -0.130641 0.135428 -0.186932 0.135657 -0.021647 -0.029837 0.056999 -0.084343 0.011406 -0.003782 -0.069034 0.240438 -0.072827 0.120811 -0.252120 0.059230 0.021540 0.059204 0.291222 0.067840 -0.015181 0.038168 -0.020072 0.020355 -0.206256 -0.111712 -0.050442 0.044480 0.111043 -0.178685 0.174295 -0.055954 0.054370 -0.006382 -0.050534 -0.207474 0.083739 0.107046 0.333562 0.121138 -0.069366 0.094672 -0.047470 -0.148567 -0.005296 -0.220773 -0.149633 -0.268537 -0.003118 0.223521 0.075468 -0.030095 -0.059166 0.077324 0.096353 -0.160477 0.016664 0.072354 -0.024033 0.094777 0.030038 0.080526 0.163631 -0.008323 -0.053388 -0.252932 -0.034080 0.260110 0.058712 0.183310 -0.097346 0.310567 0.056355 0.331837 0.157308 -0.066928 -0.139386 0.123552 -0.091803 -0.170638 0.037774 0.044517 0.100181 0.211882 0.052200 0.228360 0.003797 0.258771 0.032081 -0.040404 -0.067833 0.103470 0.111053 -0.019405 -0.186132 0.084704 0.000436 -0.047338 -0.097376 0.050011 -0.022992 0.073792 -0.213759 0.175368 -0.216570 -0.013767 0.212133 0.162646 -0.127015 -0.066129 -0.070632 -0.126520 0.108608 0.032400 0.062723 -0.069397 -0.134273 0.263815 -0.010598 0.099485 0.039866 -0.019911 -0.169602 0.042930 0.169061
752 -0.039451 0.213636 0.185285 0.005346 -0.099115 -0.104047 0.372426 -0.135025 -0.067594 0.274647 0.166733 0.054286 0.326536 0.014338 -0.024624 0.032312 0.367843 -0.227103 0.198938 0.007613 0.119715 0.364145 -0.152845 0.008478 0.095440 0.006639 0.059478 -0.267644 -0.220623 0.065954 0.215596 0.129277 -0.083723 0.251414 -0.202220 0.015480 -0.046292 -0.065023 -0.195528 0.024889 0.273800 0.205490 0.094942 -0.101456 -0.120859 0.335821 -0.114879 -0.072321 -0.298846 -0.129639 -0.457104 0.034542 0.217125 0.069440 -0.190080 -0.249763 -0.000590 0.184603 -0.376340 -0.049206 -0.136543 -0.005085 0.221307 0.128420 0.354666 0.232838 -0.129645 0.066465 -0.321446 -0.030340 0.442664 0.010979 0.294343 0.129042 0.356622 0.140011 0.293938 0.097786 -0.156137 0.082568 0.154555 -0.292265 -0.091965 0.003557 -0.041662 0.051220 0.356009 -0.029400 0.472618 0.234752 0.462790 0.126957 -0.066891 0.093337 0.247804 -0.002759 -0.174275 0.041048 0.108190 0.114893 -0.077500 -0.296295 0.367706 -0.134986 0.108066 -0.237926 -0.006300 -0.024951 0.001536 0.281873 0.259089 -0.228631 -0.108096 -0.170019 -0.226883 0.189912 0.056767 0.123615 -0.183769 -0.430288 0.473005 -0.250530 0.277959 0.303137 0.090522 0.038110 0.029595 -0.082496
932 -0.093426 0.003857 0.210402 -0.179659 0.336483 -0.181874 0.084888 -0.412845 0.127326 0.330723 -0.449267 0.036128 0.499489 0.083484 0.331921 0.098369 0.511339 -0.050637 -0.150390 -0.015567 0.077339 0.320771 -0.043623 -0.124381 -0.038212 0.162790 -0.269801 -0.471318 0.148743 -0.423545 -0.075898 0.105801 0.063533 0.026708 -0.016165 0.361311 0.203448 -0.192919 -0.243579 0.187677 0.368005 0.176253 -0.038687 0.186497 0.203872 0.083884 0.044215 -0.070570 -0.131540 0.073640 -0.335669 0.139657 0.066738 0.110751 0.080152 -0.429500 -0.113754 -0.118684 -0.091366 0.427088 0.191947 -0.238750 0.121965 -0.331453 0.162962 0.356251 -0.127161 -0.064918 -0.203473 -0.255944 0.261846 -0.173916 -0.054817 0.035671 0.233891 0.392995 0.271466 0.110820 -0.121015 0.106288 -0.125465 0.147839 0.133893 -0.083385 -0.084268 -0.126796 0.092214 0.166298 0.252116 -0.068991 0.128510 -0.074976 0.213813 -0.114456 0.109213 0.299458 -0.318637 -0.210966 0.082603 -0.138129 -0.241975 -0.172536 0.245540 -0.303051 -0.068118 0.181787 -0.065300 -0.347307 0.218982 0.008968 0.175029 0.010780 0.167385 0.008249 -0.036196 0.351267 0.002935 0.017925 0.293883 -0.131074 0.174180 -0.180026 0.041872 -0.264931 0.078791 -0.176314 0.151348 -0.214619
124 -0.018018 -0.257120 0.128525 0.061125 -0.057107 -0.065435 0.199683 -0.449143 0.102258 -0.191805 -0.019656 -0.018304 -0.133085 0.027984 0.050975 -0.237093 -0.056649 -0.225653 0.081434 0.102842 -0.099627 0.053548 0.292513 -0.164180 0.203922 -0.256441 0.034858 -0.323863 0.149157 0.197515 -0.043240 0.032815 0.037852 0.181192 -0.181817 -0.048009 -0.160740 0.053920 -0.190520 0.209392 -0.062889 0.154929 0.418127 -0.386252 0.079505 0.050787 -0.102687 -0.025982 -0.424215 -0.190235 -0.289469 -0.118565 0.077978 0.250792 0.135200 -0.210526 0.088824 0.400849 -0.303530 0.063863 -0.112712 0.111009 0.009876 0.143337 -0.033398 0.004097 -0.283718 0.301298 -0.137685 0.027891 0.058404 0.330193 -0.118427 -0.271996 0.020559 0.309995 -0.093574 -0.197156 0.012849 -0.239468 0.057318 0.105884 0.015095 0.059941 -0.222115 0.038539 0.323738 0.033088 -0.057994 0.257630 0.014231 -0.048614 0.119375 -0.041375 0.291965 0.079055 -0.008634 -0.168321 -0.036885 -0.225943 0.286292 0.155130 0.090484 0.100902 -0.158598 0.115593 0.292918 -0.263279 -0.250195 0.209729 0.490093 -0.404067 -0.056228 0.078343 0.242872 0.130259 -0.287933 0.026909 0.083437 0.175267 0.149422 0.318478 0.095674 0.490949 0.120208 0.105613 -0.030340 0.354096
680 0.017282 0.072710 0.191086 0.008869 -0.132944 -0.114591 0.245286 -0.090591 -0.053014 0.281799 0.005476 0.061961 0.352026 -0.026919 0.009621 -0.052720 0.211234 -0.298354 0.018195 -0.033760 0.009761 0.399888 -0.030653 0.009464 0.072377 0.028344 0.015629 -0.258991 -0.083601 0.099661 0.007773 -0.009708 -0.055006 0.212248 -0.106095 0.051264 0.014395 -0.065681 -0.173614 0.095733 0.216041 0.243627 0.063540 -0.147455 -0.054484 0.209319 -0.145870 -0.165892 -0.237597 -0.316182 -0.348341 0.038062 0.213794 0.012199 -0.182144 -0.182022 0.025223 0.246153 -0.297324 0.045703 -0.066888 -0.044745 0.122071 0.081662 0.192789 0.233594 -0.001832 0.066272 -0.288000 -0.014400 0.437943 -0.016431 0.088293 0.122906 0.324073 0.069416 0.257975 0.113038 -0.104149 -0.063392 0.113660 -0.210984 -0.170674 -0.043718 -0.002426 0.085646 0.170715 -0.017661 0.384065 0.203862 0.422463 0.123357 -0.060318 0.022278 0.167175 0.028685 -0.176918 -0.061072 0.107525 0.088897 -0.060796 -0.246056 0.283287 -0.059667 0.024442 -0.206121 -0.006728 -0.106278 0.016611 0.306917 0.182947 -0.167718 -0.051917 -0.154922 -0.183549 0.153183 0.060081 0.081824 -0.118578 -0.363241 0.356610 -0.075235 0.240407 0.024486 0.052096 -0.048985 0.081648 -0.064391
532 0.026567 -0.148549 0.094781 -0.207626 0.059826 -0.293951 0.024144 -0.329757 0.011412 -0.020361 -0.264147 -0.035299 -0.049534 -0.078085 0.095035 -0.117313 0.195682 0.011025 0.291985 0.149068 0.139097 0.192068 -0.002559 -0.120275 0.160500 -0.121062 0.035944 -0.487414 -0.140892 0.138230 0.007616 0.291107 -0.209987 0.339187 -0.206625 0.003943 -0.146863 0.001974 -0.394564 -0.074367 0.184507 0.070134 0.211498 0.162181 -0.044847 0.079208 -0.137552 -0.063118 -0.324240 0.034691 -0.494114 0.004857 -0.097222 0.258739 0.093231 -0.114495 0.043053 0.148361 -0.360195 0.090903 -0.009178 0.054925 0.196249 0.159346 -0.055980 -0.096098 -0.153220 -0.064797 -0.194707 0.022591 0.116839 0.203880 0.334849 -0.241245 0.312116 0.334980 0.112401 -0.103079 -0.109849 -0.060635 0.163798 0.135433 0.159188 0.117534 -0.228334 -0.147182 0.378429 0.189074 0.145694 0.146791 -0.029020 -0.105450 0.012027 -0.216735 0.232223 0.380205 -0.125580 -0.085103 0.298962 -0.034600 -0.039664 -0.175749 0.212550 -0.217013 -0.007695 0.034195 0.218488 -0.147819 -0.013979 0.064819 0.174829 -0.117667 -0.100778 -0.053564 -0.052831 0.159199 0.117786 -0.139645 -0.180599 -0.076815 0.134559 0.100744 -0.013234 0.370394 0.046823 0.061987 -0.053004 0.111392
389 -0.046270 -0.161606 0.290442 -0.140503 -0.051553 -0.194267 0.097723 -0.192426 0.180369 0.127324 0.013703 -0.042474 -0.028186 -0.071111 0.212673 -0.034322 -0.145813 -0.203219 -0.244305 0.023813 -0.096399 0.173591 0.220303 -0.300204 0.247750 0.083706 -0.030946 -0.254781 0.229608 0.147574 -0.257897 -0.079365 -0.197354 0.175902 0.062644 -0.055225 -0.019911 0.115076 -0.348342 0.331984 -0.077422 0.016084 0.101784 -0.113502 -0.083756 -0.007737 -0.129811 0.064197 -0.247520 -0.375791 -0.015511 0.042566 0.148757 0.149256 0.200355 -0.129368 -0.088486 0.068206 -0.415996 0.042357 0.101764 0.081335 -0.099598 0.051754 -0.022775 0.086663 0.153023 -0.017207 -0.462187 0.069754 0.273746 0.047167 0.004033 0.096658 0.273972 0.220132 0.200636 -0.178250 -0.110023 -0.207823 0.107831 0.050322 -0.106596 0.164684 0.132784 -0.050417 0.115113 0.035511 0.039285 0.290525 0.029602 0.067822 0.106372 -0.057138 0.306109 0.052348 -0.033588 0.145152 0.066891 -0.102736 0.084802 0.188804 0.086484 0.017084 -0.063137 0.055466 0.304536 -0.132056 -0.000792 0.186096 0.294936 0.016071 -0.006319 0.036538 0.041786 0.292751 -0.214688 0.065019 0.202733 -0.000179 0.227047 0.069397 0.242032 0.069823 0.149426 -0.149998 -0.064389 -0.007761
957 -0.067759 -0.108903 0.135092 -0.027005 -0.208611 -0.202408 0.080545 -0.269762 -0.077468 -0.014251 -0.070812 -0.095326 0.082244 -0.107013 0.225755 -0.205321 -0.022936 -0.355128 0.028955 0.110040 -0.009231 0.145594 0.249697 -0.155130 0.010484 -0.106756 0.112441 -0.370297 -0.038354 0.168334 -0.013628 -0.137315 -0.210744 0.392716 -0.264124 -0.053272 -0.124614 0.086679 -0.045927 0.140846 0.126670 0.177555 0.210571 -0.084921 0.007383 0.128333 -0.234626 -0.023513 -0.188652 -0.179134 -0.049367 0.073086 0.077025 0.148728 0.066742 0.013284 0.077320 0.429201 0.032654 0.007329 -0.036469 -0.006748 0.126545 0.090181 0.155238 0.088706 0.013232 -0.020210 -0.251688 0.110020 0.232321 -0.033438 0.121428 0.029192 0.086473 0.096367 0.313795 0.258378 -0.138441 -0.362821 0.292386 -0.005988 -0.089143 -0.078114 -0.002337 0.174698 0.219035 0.033598 0.144456 0.072160 0.398795 -0.043013 -0.057643 0.056099 0.357882 -0.070893 -0.023676 0.079548 0.103003 -0.062387 0.261788 -0.176469 -0.075626 0.170976 -0.176922 -0.115963 0.104352 0.023919 -0.224694 0.225481 0.328878 -0.277799 -0.217895 -0.217823 -0.123186 0.142988 -0.254788 -0.072195 -0.112064 -0.115195 0.384244 0.232570 0.348803 0.243361 -0.032593 0.033152 -0.017403 0.401576
527 -0.168799 -0.005018 0.147879 -0.205633 0.296923 -0.241728 0.077455 -0.135297 0.027431 0.139570 -0.181905 0.073645 0.208841 -0.002540 0.410492 -0.068914 0.261349 -0.158663 -0.112359 -0.146592 0.005038 0.238784 0.041968 -0.087962 -0.055266 -0.067111 -0.148204 -0.349046 -0.003179 -0.279371 0.040369 0.005178 -0.074192 0.022177 -0.072876 0.127739 0.151001 -0.035839 -0.115146 0.123458 0.176620 0.108413 0.069297 0.036561 0.315066 0.058897 0.052025 -0.001764 -0.157023 0.012792 -0.209056 0.115226 0.184721 0.183762 0.122148 -0.149345 0.010352 -0.014683 0.068588 0.204334 0.162633 -0.113214 -0.065059 -0.236395 0.088216 0.286308 0.013794 -0.022818 -0.064562 -0.091116 0.251230 -0.009898 -0.088274 -0.135240 0.170118 0.145880 0.268403 0.136981 -0.105283 -0.056986 -0.016624 0.089033 0.003810 -0.060517 -0.021937 0.088556 0.019829 0.107078 0.141819 -0.114790 0.154197 -0.141418 0.105345 0.043791 0.063463 0.101012 -0.069023 -0.240448 0.084604 -0.213075 -0.209579 -0.098895 0.091041 0.008852 -0.055524 0.028826 0.044470 -0.285390 0.088964 0.090905 0.187677 -0.088434 -0.028965 -0.028434 -0.009037 0.180994 -0.040101 0.066001 0.206542 -0.177305 0.312657 -0.001572 0.159668 -0.094266 -0.001487 -0.176350 0.085871 -0.047012
412 0.064359 -0.228189 0.389688 -0.088453 -0.184722 -0.096475 -0.011511 0.098733 0.111046 0.048405 -0.135688 -0.026640 0.182019 -0.155259 0.040975 0.037476 0.073893 -0.277782 -0.176850 0.022400 -0.025625 0.436849 0.132597 -0.145127 0.112305 0.092625 -0.000654 -0.304881 -0.030747 0.066960 -0.137815 0.062082 -0.166447 0.290625 -0.009442 0.200831 0.109409 -0.019086 -0.424047 0.131631 0.013561 0.347077 0.060627 -0.009480 -0.099727 -0.040917 -0.274054 -0.075950 -0.258649 -0.423947 -0.119018 0.089329 0.213875 0.160078 -0.094544 0.009769 -0.076157 0.138302 -0.274961 -0.044648 0.030775 -0.097243 0.029743 0.070513 0.073702 0.132496 0.096837 -0.054782 -0.466802 -0.127306 0.380468 -0.021796 0.119670 0.164919 0.455846 0.013660 0.313738 0.074400 -0.042007 -0.292602 0.163456 -0.039282 -0.404394 0.024681 0.127731 0.201899 0.259935 0.174395 0.297951 -0.001246 0.315536 0.060674 -0.060064 -0.222228 0.201819 0.213452 -0.188478 -0.070708 0.138519 0.074762 -0.100724 -0.204574 0.181055 -0.129247 0.097376 -0.197319 0.182469 -0.140710 0.014895 0.257297 0.083278 -0.086953 0.061220 -0.210500 -0.236826 0.226968 -0.037579 -0.004383 -0.059461 -0.089686 0.108605 0.128650 0.305985 -0.135709 0.015276 -0.117162 0.095348 0.191285
255 -0.067843 -0.178306 0.055635 0.011271 0.131167 -0.230299 0.195074 -0.429216 -0.002356 0.121049 -0.055965 0.080467 0.117800 0.073715 0.101750 -0.283458 0.066792 -0.117332 -0.165753 0.068386 -0.187700 0.248400 0.203417 -0.017203 0.052653 -0.145948 -0.144715 -0.390203 0.140640 0.056870 -0.108711 0.040144 0.122013 -0.036654 -0.176192 0.096707 -0.086239 0.108024 -0.100805 0.241496 0.119853 0.064007 0.197362 -0.216639 0.175605 0.046632 0.058812 -0.211874 -0.225797 -0.177979 -0.349201 0.089588 0.062298 0.194652 0.233193 -0.208566 0.114012 0.159800 -0.172579 0.286576 -0.139368 0.012383 -0.106570 -0.063981 0.015940 0.129615 -0.146355 0.252403 0.041940 -0.028389 0.191064 0.223787 -0.297165 -0.180526 0.101075 0.268719 -0.078876 -0.241228 -0.063018 -0.085547 -0.046726 0.028771 0.188498 -0.064759 -0.161496 -0.006933 0.147800 0.113701 -0.056757 0.189393 0.174003 -0.025842 0.179702 -0.091456 0.055147 0.168019 -0.126325 -0.296852 0.076212 -0.174702 -0.056563 0.013508 0.207708 -0.095343 -0.224423 0.098559 0.089907 -0.302191 -0.076182 0.278357 0.476492 -0.116698 -0.093131 0.036654 0.201394 0.103866 0.046835 -0.013554 0.233676 -0.163272 0.170307 0.130815 0.016634 0.047805 0.134122 0.040432 0.001286 -0.030162
225 -0.113747 0.018304 0.350196 0.018353 0.106133 -0.129044 0.252762 -0.539983 -0.010749 0.186982 -0.153007 -0.166377 0.025955 0.035253 0.291149 -0.255853 0.122449 -0.274512 -0.096707 -0.079213 0.075386 0.276876 0.017425 -0.182041 0.116669 -0.070659 -0.117529 -0.435639 0.105677 -0.083938 -0.228610 0.201474 -0.101219 0.071885 -0.201632 0.125924 0.001385 0.045163 -0.074907 0.093173 0.167234 0.055759 0.056810 0.117798 0.228475 0.206386 -0.198408 -0.029558 -0.121291 0.102158 -0.223726 -0.091347 0.024959 0.217263 0.157399 -0.168433 0.094486 0.039921 -0.082729 0.235673 0.115641 -0.053228 0.030256 -0.192119 0.094398 0.199221 0.029302 0.058930 0.039067 -0.144147 0.282591 -0.171714 0.020631 0.049728 0.131802 0.456661 0.120259 0.082231 -0.151282 -0.061266 0.023886 0.299588 0.178640 -0.059928 -0.157387 -0.069239 0.008302 0.109219 -0.030440 0.147729 0.024036 -0.150261 0.253729 -0.007183 0.108637 0.151423 -0.063328 -0.177628 0.005621 -0.140353 -0.051610 -0.110272 0.041298 0.054283 -0.100077 0.080844 0.160852 -0.176655 -0.086639 -0.007401 0.250499 0.000969 0.025693 0.051737 -0.066391 0.481205 0.184024 -0.142435 0.130649 -0.051084 0.304045 -0.186261 -0.007303 -0.014441 -0.085143 -0.085313 0.057677 -0.086651
876 0.115000 -0.186597 0.181942 -0.049039 0.227552 0.059169 -0.129083 -0.116954 0.082153 -0.074411 -0.197327 0.198216 0.070307 -0.088581 0.076862 -0.028151 0.460699 0.219361 0.331957 0.222922 0.264080 0.234925 -0.093141 0.065962 -0.090663 0.023743 -0.072192 -0.399841 -0.287097 -0.176721 0.285360 0.152126 -0.135092 0.039356 0.079054 0.023598 -0.024744 -0.227605 -0.411656 0.041869 0.280028 0.291567 0.164520 -0.087457 -0.012838 -0.016699 -0.064674 -0.185031 -0.453423 0.002803 -0.683034 0.183783 0.313648 0.248385 -0.047587 -0.038959 -0.066041 -0.012044 -0.275946 0.194839 0.147760 -0.060664 0.197847 0.274039 0.030454 0.030530 -0.189552 -0.180834 -0.347387 -0.015600 0.041236 0.242701 0.322121 -0.482225 0.363354 0.112606 0.226165 -0.123573 0.018143 -0.027702 0.117661 -0.182231 0.014152 -0.034490 -0.104450 -0.156421 0.318294 -0.044404 0.305852 0.191952 0.045037 0.079953 -0.144037 -0.288180 0.348912 0.365700 0.142723 -0.298440 0.140694 -0.065907 -0.073709 -0.038561 0.330676 -0.276464 0.163462 -0.162041 -0.015392 -0.540036 0.150059 0.164681 0.217716 -0.023669 0.010715 0.041638 0.209795 -0.061183 0.022397 0.134213 0.028357 -0.189388 0.142251 -0.009046 0.095070 0.128660 0.140958 0.081466 -0.155402 0.077360
70 0.015182 0.068039 -0.037205 -0.111639 0.177826 -0.002630 -0.148367 0.090842 0.078958 0.148368 -0.103654 0.225996 0.016787 0.036100 0.366206 -0.201307 0.234040 -0.346237 0.271609 -0.156905 0.016223 -0.083194 -0.143343 -0.010116 -0.084077 -0.169503 0.146565 -0.224145 -0.015536 -0.274477 0.164690 -0.127805 -0.205662 -0.144464 -0.032310 -0.374799 0.242991 0.008727 -0.062937 -0.066075 0.209003 0.190373 0.167277 0.076960 0.053625 0.263858 -0.131523 -0.003458 -0.494284 -0.191976 -0.434029 0.056926 0.273230 0.128214 -0.013943 0.067302 0.130773 0.409333 -0.234037 0.190569 0.232232 0.075711 0.031136 0.086031 -0.316453 0.253333 -0.109139 -0.113389 -0.203623 -0.197849 0.197107 0.128587 -0.036226 -0.378398 0.089396 0.078046 0.127369 0.135145 -0.134193 -0.207757 0.135371 -0.087315 -0.171326 0.155489 -0.019299 0.014540 0.014324 -0.104349 0.231061 0.318427 0.123146 -0.375165 -0.054654 0.321472 -0.000746 -0.060583 0.140128 -0.418095 0.313927 -0.041593 -0.069343 0.022541 -0.022528 0.170588 0.041800 -0.068552 0.038916 -0.289542 0.043910 -0.049479 0.174828 -0.158553 -0.098836 -0.135314 0.061705 -0.051861 -0.241801 0.280075 -0.013815 -0.173688 0.476665 0.149333 0.319333 0.254424 -0.043097 0.105414 -0.193987 -0.236540
549 -0.198566 -0.046567 0.044201 -0.221836 0.201386 -0.235775 0.064257 -0.014826 0.079372 0.073258 -0.016681 -0.027528 0.040575 -0.038786 0.326056 -0.188967 0.108411 -0.281998 0.090882 -0.186639 0.073625 -0.202008 0.028639 -0.164650 -0.076636 -0.265152 0.054216 -0.098862 0.027565 -0.163280 -0.137169 -0.177599 -0.187252 -0.077722 -0.117067 -0.243766 0.057140 0.044327 -0.009741 0.066481 0.095493 -0.084480 0.193452 -0.054991 0.064087 0.238505 0.062584 0.139807 -0.261736 -0.146414 -0.171821 0.011037 0.321413 0.156264 0.159091 0.040041 0.118373 0.219818 -0.165783 0.087160 0.325841 0.039518 -0.004135 -0.042087 -0.156263 0.244625 0.107974 -0.152432 -0.164042 -0.143576 0.284916 0.159401 -0.016154 -0.203282 0.178011 0.183073 0.044365 -0.001689 -0.043364 -0.194492 0.030575 0.011939 -0.000874 0.175215 -0.151301 -0.101893 -0.118758 0.068341 0.257122 0.116890 0.041340 -0.240786 -0.035464 0.283711 0.114324 -0.076364 -0.000098 -0.407579 0.151708 -0.281547 0.005117 0.016682 -0.101971 0.266896 -0.035277 0.053892 0.349307 -0.139561 0.042600 0.054412 0.311662 -0.090934 -0.150111 -0.087397 0.004760 0.164748 -0.144204 0.072550 0.213455 -0.240092 0.389777 0.174416 0.344352 0.346448 0.036057 0.005775 0.047544 -0.213629
735 -0.162163 0.083383 0.044608 0.013245 0.213482 0.042532 -0.200101 -0.013990 0.049606 0.036731 -0.100599 0.056662 -0.133667 -0.025667 0.540342 -0.233654 0.026913 -0.535441 0.230211 -0.203163 0.006453 -0.031125 0.006820 0.079107 -0.084621 -0.132652 0.070539 -0.239249 0.000723 -0.314039 0.061566 -0.155452 -0.207656 -0.070333 -0.068009 -0.252262 0.230388 -0.018326 -0.052422 0.012796 0.153599 0.318440 0.281790 0.101714 0.278512 0.305092 -0.216158 0.038813 -0.448559 -0.011306 -0.333364 -0.030632 0.259999 0.022180 -0.080595 0.017330 0.053543 0.384587 -0.019027 0.154256 0.332933 0.067638 -0.054659 0.058672 -0.253274 0.260592 -0.073308 0.048690 -0.199348 -0.257647 0.143170 -0.083223 -0.066477 -0.404529 0.111741 0.184672 0.191566 0.375208 -0.152325 -0.336315 0.206693 0.089164 -0.172398 0.076136 -0.023001 0.065812 0.066661 -0.066974 0.063635 0.256615 0.141913 -0.310059 0.079148 0.222391 -0.146827 -0.038010 0.232306 -0.483260 0.171993 -0.122970 0.069286 0.070242 -0.177477 0.269742 0.027346 -0.139306 0.207261 -0.346647 -0.088064 -0.095868 0.197316 -0.125148 -0.097459 -0.105495 0.082451 0.067053 -0.242300 0.181553 0.022728 0.027644 0.429357 0.064201 0.333867 -0.006978 -0.119672 0.009617 -0.191201 -0.007730
625 0.035610 -0.107410 0.314828 0.032846 -0.120569 -0.445994 0.293014 -0.525618 0.178983 0.310586 0.069741 -0.028761 -0.150350 0.038657 0.199524 -0.290888 -0.100319 -0.017132 -0.030062 0.148427 -0.105113 0.118217 0.010895 -0.358746 0.333850 -0.090741 0.048455 -0.397898 0.248175 0.213545 -0.183351 0.066020 -0.212423 0.096785 0.103205 -0.227163 -0.208572 0.032186 -0.398106 0.202503 0.022173 -0.198314 0.127821 -0.199546 -0.123852 0.084832 -0.264693 -0.205331 -0.363659 -0.302991 -0.462216 -0.018083 -0.016016 0.194121 0.179844 -0.255356 0.029477 0.106695 -0.722379 0.181448 -0.022220 0.107250 0.122271 0.166229 -0.122707 -0.101299 -0.024643 0.072599 -0.222614 0.129417 0.098261 0.090468 -0.072466 0.024451 0.279101 0.389257 0.020482 -0.352199 -0.058788 0.189599 0.131253 0.023070 0.035495 0.256008 -0.016010 -0.328525 0.266754 -0.094896 -0.047681 0.512557 -0.120286 0.057878 0.187913 -0.047768 0.414990 0.431464 0.000180 0.089471 0.091796 -0.150516 0.022993 0.147525 0.246898 0.021825 -0.030813 0.053089 0.260186 -0.139192 -0.035129 0.109153 0.438704 0.128769 0.084523 0.194463 0.033408 0.261983 0.065318 0.024377 0.274382 0.024989 0.153796 -0.033690 0.090429 0.294100 0.149435 -0.133481 -0.206095 -0.192526
1003 -0.143390 -0.100438 0.201378 -0.115089 0.310695 -0.050345 -0.039680 -0.165213 -0.016740 -0.143512 -0.054405 0.391171 -0.141820 -0.145884 0.223655 -0.231640 0.329313 0.027892 0.126511 0.053132 0.108103 0.171936 0.002421 -0.090229 -0.026479 0.022640 -0.023603 -0.373814 -0.081599 -0.218289 0.422294 -0.058427 -0.054737 0.036003 0.083152 -0.323895 0.191464 -0.135217 -0.243364 0.292578 0.135152 0.263618 0.309956 -0.187693 0.099794 -0.124476 -0.014217 0.015655 -0.512109 -0.040788 -0.306234 0.168205 0.432033 0.244904 0.044208 0.119965 -0.079487 0.014024 -0.183472 0.062904 -0.012916 -0.000453 -0.132623 0.004539 0.085935 0.113829 -0.329018 -0.234291 -0.309468 0.097257 0.058595 0.260198 0.219976 -0.516981 0.118483 -0.169067 0.284646 -0.174134 0.048257 0.005672 0.019228 -0.088607 -0.029055 -0.021974 0.011460 -0.014960 0.206271 -0.085523 0.022643 0.259226 0.049229 0.046174 -0.167636 -0.089496 0.359753 -0.053148 0.288401 -0.088337 0.091943 -0.091012 0.002960 0.047635 0.190379 -0.035359 0.221536 -0.077359 0.044167 -0.495245 0.035264 0.159092 0.340996 -0.337223 -0.229544 0.120074 0.292307 -0.107899 -0.361276 0.472790 0.070259 -0.174780 0.328952 0.143014 0.242189 0.375167 0.055650 0.028251 -0.306338 0.003209
728 -0.053019 -0.096780 0.123570 -0.158110 0.112600 -0.355002 0.041596 -0.342277 0.145177 0.136701 -0.256151 -0.004402 0.134519 -0.009365 0.192500 -0.131921 0.141649 -0.014716 0.006023 0.042294 -0.012477 0.165860 0.159488 -0.108187 0.115180 -0.122742 -0.092505 -0.489794 0.043089 -0.022946 -0.107727 0.016539 -0.108237 0.213260 -0.020846 0.028972 -0.068694 -0.030192 -0.219503 0.113817 0.246651 0.069812 0.121877 0.017786 0.100453 0.117127 -0.077172 -0.113848 -0.156401 -0.005136 -0.301443 0.082547 -0.084852 0.098712 0.148720 -0.212123 0.018326 0.139447 -0.172238 0.201244 0.040323 -0.032849 0.091465 -0.016909 0.057004 0.037062 -0.082925 0.011502 -0.134981 0.019692 0.150776 0.036696 -0.026966 -0.103428 0.151160 0.305436 0.094690 -0.045583 -0.123775 -0.027087 0.072612 0.216011 0.177441 0.049867 -0.188264 -0.142187 0.261022 0.113899 0.044602 0.046658 0.065058 -0.060676 0.109210 -0.172964 0.139606 0.356915 -0.139428 -0.086255 0.154529 -0.153978 -0.070402 -0.187537 0.157066 -0.134684 -0.153183 0.001060 0.156546 -0.173013 -0.060554 0.071407 0.223146 0.035505 -0.033872 -0.094365 -0.001657 0.192400 0.095680 -0.065325 0.073098 -0.064551 0.058668 0.072844 0.149558 -0.000518 0.058918 -0.030939 -0.073913 -0.059632
279 -0.139988 -0.134820 0.158956 0.120002 0.084754 -0.056985 0.003168 -0.364528 0.120669 -0.101061 -0.019853 -0.089553 -0.021022 -0.030886 0.274012 -0.192187 0.017599 -0.126965 0.190683 0.048396 0.002359 -0.167247 0.119687 -0.102859 0.106762 -0.243925 -0.000081 -0.265029 -0.056846 0.039489 0.023642 -0.047954 -0.112725 -0.002803 -0.098891 -0.205629 -0.198305 -0.175944 -0.092728 0.099103 0.053944 -0.031027 0.280524 -0.188247 0.161079 0.135632 -0.091550 -0.028724 -0.335533 -0.055288 -0.379503 -0.165226 0.197837 0.224758 0.131499 -0.185071 0.019553 0.298290 -0.185578 0.096888 0.237037 -0.025933 0.041287 0.221667 -0.094867 0.080303 -0.093206 0.094105 -0.080432 -0.049368 0.001403 0.163445 0.023050 -0.254020 0.107867 0.271422 0.055309 0.010264 0.008536 -0.130059 0.140208 0.134240 0.035999 0.014032 -0.226590 -0.057392 0.114528 -0.003768 0.018410 0.254471 -0.062718 -0.065096 0.118835 0.070860 0.334519 0.086422 0.073221 -0.385362 -0.082747 -0.372333 0.169567 0.152633 0.028751 0.170522 -0.130153 0.027141 0.223339 -0.299211 -0.036600 0.066651 0.341946 -0.038476 -0.117390 0.091743 0.208581 0.136531 -0.183840 -0.089621 0.141283 -0.040977 0.260839 0.011515 0.152266 0.290501 0.091466 0.084915 0.029870 0.172680
993 -0.051125 0.102703 0.030298 -0.111593 0.293047 0.103757 -0.280894 0.078171 0.125119 0.162222 -0.193497 0.197594 -0.003196 0.060132 0.620153 -0.190352 0.234677 -0.492130 0.306838 -0.251269 -0.013316 -0.094951 -0.148729 0.045257 -0.114405 -0.149339 0.113547 -0.271969 0.070286 -0.455347 0.099943 -0.129423 -0.244801 -0.232620 -0.007612 -0.317314 0.360862 -0.007910 -0.041583 -0.121413 0.222044 0.291610 0.147332 0.243120 0.201413 0.319551 -0.207337 0.025222 -0.547578 -0.085215 -0.463307 0.023217 0.199508 0.071577 -0.023882 0.032626 0.100077 0.430142 -0.136097 0.296253 0.398373 0.046155 0.003011 0.025400 -0.416876 0.336045 -0.109043 -0.102891 -0.224762 -0.388375 0.198424 -0.030581 -0.114826 -0.414574 0.082204 0.188849 0.179161 0.321880 -0.196436 -0.331636 0.134189 0.088966 -0.215432 0.137165 -0.003642 0.039299 -0.037839 -0.090951 0.181008 0.316598 0.065947 -0.531547 0.064957 0.378993 -0.145502 -0.025980 0.178564 -0.545529 0.322550 -0.053354 -0.065544 0.093730 -0.113231 0.227587 0.007196 -0.018706 0.058398 -0.405331 0.054284 -0.164339 0.146108 -0.122498 -0.053708 -0.128357 0.060860 0.027551 -0.322117 0.291436 0.062633 -0.067086 0.527154 0.108594 0.325347 0.109383 -0.130570 0.070861 -0.190868 -0.214438
631 -0.057620 -0.056945 0.120801 -0.355744 0.293213 -0.614810 0.156567 -0.155313 0.111171 0.085040 -0.323330 0.015884 -0.014158 -0.026616 0.486486 -0.389126 0.129633 -0.012792 -0.041744 -0.082738 -0.016509 0.223502 0.138259 -0.046846 0.140775 -0.170796 -0.005167 -0.438968 -0.169271 -0.175247 0.151049 0.083480 -0.279840 0.145842 -0.143390 -0.160718 -0.150880 0.155987 -0.000065 0.060338 0.133354 0.101082 -0.028012 -0.147000 0.432551 -0.059306 -0.144431 -0.023517 -0.028522 -0.064068 -0.540711 0.183656 0.044759 0.101703 0.070860 -0.094352 0.375113 0.174914 -0.047352 0.279217 0.019106 -0.174321 0.070069 0.014507 -0.005063 0.020468 0.013315 -0.125707 0.190095 0.084442 0.095419 0.192570 -0.206062 -0.475881 0.148344 0.062660 0.285501 0.006541 -0.083514 -0.099064 0.106947 0.085815 0.015676 0.000646 0.044746 0.117926 0.246365 0.061297 0.217156 -0.130747 0.175234 -0.121062 0.097093 -0.038575 0.132547 0.456087 0.200981 -0.199273 -0.001896 -0.452197 -0.141062 -0.196392 -0.042645 -0.014147 -0.148527 -0.335297 -0.021985 -0.339011 -0.133166 0.128669 0.250158 -0.117327 -0.230327 -0.053113 -0.073161 0.005640 0.340051 0.026754 -0.067071 -0.401555 0.242591 0.076860 0.015830 0.051646 -0.057022 -0.078326 -0.190546 0.118069
286 0.236086 -0.260878 0.279300 -0.061223 -0.150879 -0.369993 0.253180 -0.700310 0.307793 0.481429 -0.349153 -0.075801 0.085531 0.248364 0.134675 -0.106319 -0.022993 -0.242527 -0.005466 0.188299 -0.092740 0.119874 0.112971 -0.154932 0.250269 -0.093124 -0.073409 -0.460152 0.425086 0.168555 -0.314442 -0.182700 -0.079018 0.119189 0.216419 -0.119395 -0.091775 0.132294 -0.282983 0.301182 0.198268 0.045553 0.038487 -0.251981 -0.160247 0.023616 -0.204599 -0.259454 -0.346660 -0.297031 -0.459075 0.015103 -0.248617 0.154820 0.207872 -0.532856 -0.017546 0.266370 -0.604452 0.396483 0.031217 0.054729 0.263424 0.006284 -0.089166 -0.013943 -0.172923 -0.006691 -0.253127 0.217231 0.132523 0.137866 -0.341389 0.029279 0.081683 0.397418 -0.007290 -0.362320 -0.133055 0.047555 0.079546 -0.002708 0.113597 0.327849 -0.087145 -0.322963 0.297724 -0.214244 0.061118 0.408547 -0.031629 0.016849 0.227116 -0.055680 0.241263 0.423770 -0.028657 0.171391 0.129054 0.006436 0.186210 0.040616 0.226691 -0.063300 -0.234098 0.200537 0.095055 -0.247029 -0.001063 0.105826 0.315851 -0.059235 0.152135 0.147237 -0.021560 0.206153 0.049857 0.129392 0.197415 0.179133 0.137315 0.236301 0.037437 0.111935 0.214182 -0.090898 -0.221639 -0.109400
924 -0.122060 -0.201013 0.246278 -0.207888 0.330949 -0.072620 -0.064335 -0.125173 0.024041 -0.140112 -0.110668 0.400446 -0.131552 -0.198850 0.203028 -0.189162 0.260067 -0.005227 0.056638 0.061478 0.012176 0.234141 0.076025 -0.138922 0.088819 0.099694 -0.034763 -0.364880 -0.019510 -0.161148 0.346090 -0.073344 -0.075435 0.085326 0.163573 -0.283344 0.242125 -0.117294 -0.335947 0.285377 0.052897 0.294343 0.289897 -0.175028 0.093843 -0.229005 -0.062485 0.040208 -0.502084 -0.100513 -0.238995 0.146444 0.412853 0.302217 0.045885 0.123372 -0.105483 -0.016127 -0.216192 0.079870 -0.029641 0.020041 -0.222233 -0.085277 0.073447 0.129900 -0.274576 -0.253793 -0.378968 0.138088 0.105781 0.263540 0.168523 -0.477657 0.123337 -0.164327 0.333515 -0.218042 0.014080 -0.096290 -0.017425 -0.004624 -0.070420 -0.002088 0.102827 0.009093 0.217597 -0.016056 -0.064608 0.237468 -0.010853 0.032331 -0.139132 -0.178874 0.386492 -0.060358 0.296912 0.032557 0.084846 -0.092142 -0.009280 0.111356 0.166469 -0.084511 0.200791 -0.040773 0.095258 -0.453103 -0.003343 0.156126 0.274018 -0.325675 -0.225139 0.145411 0.262876 -0.062439 -0.393469 0.517491 0.061963 -0.098315 0.311996 0.209422 0.203131 0.303824 0.031593 -0.067436 -0.296869 0.092207
185 -0.354684 -0.076499 0.162464 0.054714 0.226905 -0.006581 -0.054176 -0.317488 0.221038 0.163744 -0.260439 -0.110133 0.574610 -0.153326 0.175847 0.215389 0.373452 -0.052713 -0.004357 0.268826 0.168319 0.043932 0.108628 -0.130507 -0.045942 0.297155 -0.104481 -0.258576 0.173161 -0.345684 -0.214420 -0.282423 0.090973 0.007026 0.039246 0.195401 0.108671 -0.469111 -0.246876 0.436515 0.267994 0.229328 0.140054 0.106225 -0.027038 0.095146 -0.151931 -0.015782 -0.183111 0.012621 -0.222668 0.106202 0.330724 -0.031358 0.055452 -0.384626 -0.351948 0.046068 -0.155090 0.394048 0.430321 -0.290338 0.110247 -0.055065 0.159029 0.455278 -0.058812 -0.032305 -0.643756 -0.256595 0.229401 -0.434568 0.337137 0.167413 0.120204 0.440284 0.383891 0.234166 -0.119469 -0.061620 -0.036325 0.103188 0.041356 -0.021674 -0.195120 -0.300650 -0.076938 0.280384 0.384256 0.184242 0.191443 0.030981 0.004976 -0.141096 0.478472 -0.046046 -0.444648 -0.324398 -0.164419 -0.107979 0.140583 0.053155 0.153041 -0.113746 -0.158925 0.126848 0.013306 -0.319890 0.252916 -0.013418 0.294832 0.241096 0.114472 -0.027684 0.048244 0.328094 -0.449858 -0.052646 0.436392 -0.162011 0.029228 -0.360666 0.123443 -0.197543 0.171484 -0.172356 0.135728 -0.213032
190 -0.067628 -0.090115 0.248792 -0.081127 -0.057784 -0.212789 0.187223 -0.224440 0.154836 0.139446 0.011515 -0.058352 0.007672 -0.050802 0.163214 -0.090709 -0.080930 -0.132474 -0.183680 0.014828 -0.061631 0.214795 0.176827 -0.266196 0.191053 0.057516 -0.060364 -0.258519 0.157496 0.098320 -0.191651 -0.041425 -0.141237 0.121155 0.045516 0.033252 -0.080141 0.049617 -0.276277 0.297785 -0.029482 0.072463 0.185481 -0.129088 -0.033643 0.035555 -0.094744 -0.057659 -0.254707 -0.306595 -0.104857 0.002304 0.108833 0.135018 0.114158 -0.230608 -0.119088 0.059115 -0.378858 0.048859 0.094500 0.056064 -0.039532 0.040594 0.021345 0.079349 0.101753 0.020905 -0.332479 0.044020 0.239246 0.025247 -0.001166 0.073639 0.307378 0.247102 0.174846 -0.124769 -0.043201 -0.098974 0.106699 0.041729 -0.041112 0.124213 0.065378 -0.055182 0.147848 -0.018347 0.073507 0.257953 0.070043 0.106219 0.125875 -0.052872 0.291018 0.141045 -0.014172 0.128394 0.034805 -0.074091 0.080511 0.106534 0.140017 -0.014387 -0.027862 0.012959 0.261677 -0.173513 -0.006006 0.173535 0.291459 -0.017368 -0.007413 0.039878 0.025024 0.251600 -0.152416 0.033252 0.206198 0.013118 0.185207 -0.000351 0.149922 0.058837 0.122730 -0.143350 -0.016662 0.036703
241 -0.218458 -0.060410 0.209635 -0.107957 0.196245 -0.026421 -0.001593 -0.229079 0.245850 0.173359 -0.287546 -0.071721 0.670296 -0.100455 0.096471 0.389860 0.459723 -0.031962 -0.129672 0.134886 0.185676 0.229986 0.068122 -0.163445 -0.008449 0.358213 -0.171859 -0.264804 0.146911 -0.292602 -0.169109 -0.191593 0.093822 0.098845 0.095454 0.357048 0.129025 -0.334808 -0.335103 0.459818 0.256571 0.247165 0.020884 0.066549 -0.077960 0.043085 0.022288 0.016290 -0.141187 -0.056381 -0.185123 0.178910 0.321169 0.007082 0.023369 -0.410497 -0.345494 -0.113540 -0.224374 0.344125 0.360419 -0.287040 0.109602 -0.084876 0.273618 0.409783 0.014026 -0.046922 -0.706463 -0.220510 0.358909 -0.328274 0.316159 0.215585 0.284632 0.394873 0.405293 0.128868 -0.133202 0.000401 -0.023419 -0.032338 -0.015610 -0.026018 -0.111395 -0.223424 0.055677 0.286133 0.517593 0.105372 0.243322 0.153657 0.033794 -0.203528 0.377999 0.019181 -0.487082 -0.172573 -0.070170 -0.083109 -0.004842 -0.001036 0.254184 -0.288295 -0.092370 0.124025 -0.010713 -0.289035 0.284514 0.083498 0.217387 0.172606 0.135999 -0.073319 0.015007 0.352548 -0.375491 0.009512 0.373741 -0.253466 0.051852 -0.295825 0.199619 -0.274171 0.263519 -0.209096 0.182888 -0.232811
